/* model_weights.h — Auto-generated for CuantumWiki
 * Arch: Embed(3500,32) → AvgPool → Dense(64,relu) → Dense(5,softmax)
 * NO TFLite dependency!
 */

#ifndef MODEL_WEIGHTS_H
#define MODEL_WEIGHTS_H

#define MODEL_VOCAB_SIZE  3500
#define MODEL_EMBED_DIM   32
#define MODEL_INPUT_LEN   64
#define MODEL_HIDDEN_DIM  64
#define MODEL_NUM_LABELS  5

static const float emb_weights[3500][32] = {
  {-0.055267f, 0.276855f, 0.072094f, 0.159913f, -0.289314f, -0.361564f, 0.159341f, -0.017428f, -0.017962f, 0.062068f, 0.021523f, 0.150837f, -0.001849f, -0.354007f, -0.022767f, -0.002081f, -0.057958f, -0.045339f, -0.369507f, -0.442845f, -0.002529f, -0.005172f, -0.087520f, 0.074475f, 0.007992f, 0.007770f, -0.006913f, -0.039672f, 0.059807f, -0.156718f, 0.028964f, 0.027436f},
  {0.107638f, -0.177370f, -0.080994f, 0.051005f, -0.356389f, -0.073562f, -0.067159f, 0.123215f, -0.353980f, 0.332166f, 0.153682f, 0.028366f, 0.209629f, 0.081081f, -0.062289f, 0.009268f, -0.014995f, 0.378216f, -0.168701f, -0.500689f, 0.288555f, -0.149555f, 0.050147f, -0.197145f, 0.074986f, -0.036508f, 0.357020f, 0.165668f, -0.142079f, -0.209439f, -0.246269f, -0.296421f},
  {0.731822f, 0.038129f, -0.562009f, -0.705148f, -0.472052f, 0.248454f, 0.545558f, -0.483196f, 0.074760f, 0.263479f, 0.495902f, -0.463529f, 0.146004f, -0.301034f, -0.140823f, 0.397423f, 0.732517f, -0.243889f, 0.417676f, 0.397645f, 0.389237f, -0.655571f, -0.491335f, -0.511048f, 0.820459f, 0.662613f, 0.416069f, 0.697811f, 0.215062f, -0.294011f, -0.485241f, -0.520098f},
  {-0.043011f, -0.676919f, -0.012383f, 0.405974f, -0.262637f, -0.048642f, -0.192265f, 0.468641f, -0.754803f, 0.463922f, 0.176274f, -0.174646f, 0.473771f, 0.168134f, 0.135726f, -0.201385f, -0.497430f, 0.803735f, 0.022592f, -0.412744f, 0.636342f, -0.124991f, 0.377148f, -0.268796f, -0.265117f, -0.383229f, 0.852854f, -0.027535f, -0.745001f, 0.326233f, -0.258099f, -0.470328f},
  {-1.393499f, 0.634699f, 1.746759f, 1.403891f, 1.602593f, -0.467900f, -1.986625f, 1.238785f, 1.132797f, -1.291105f, -1.510450f, 1.683709f, -0.473760f, 1.635829f, -0.408883f, -0.333342f, -1.501388f, 0.948066f, -1.597627f, -0.098453f, -1.158803f, 1.498408f, 1.038404f, 1.889959f, -0.924883f, -1.176848f, -1.858103f, -1.670788f, 0.527067f, -0.077161f, 0.472031f, 1.119857f},
  {0.084433f, -0.295520f, -0.224254f, 0.048369f, -0.443576f, -0.132105f, 0.212696f, 0.032988f, -0.495825f, 0.415428f, 0.369337f, -0.197649f, 0.253029f, -0.079479f, 0.147717f, -0.033121f, 0.079194f, 0.190778f, 0.055164f, -0.303393f, 0.472872f, -0.219664f, 0.159938f, -0.516939f, -0.008449f, -0.133373f, 0.690471f, 0.318339f, -0.211725f, 0.147999f, -0.335010f, -0.365698f},
  {-0.257057f, 0.030650f, 0.320380f, 0.432096f, 0.142316f, -0.328984f, -0.381614f, 0.385065f, -0.017902f, -0.016426f, -0.384525f, 0.328282f, -0.138067f, 0.309350f, 0.218063f, -0.308494f, -0.292074f, 0.313677f, -0.436187f, -0.137400f, -0.135813f, 0.355756f, 0.336765f, 0.047262f, -0.253193f, -0.377024f, 0.099171f, -0.384516f, -0.030024f, 0.249736f, 0.193979f, 0.175241f},
  {-0.379014f, -0.853835f, 0.003046f, 0.993045f, -0.393560f, -0.226381f, -0.059605f, 1.052615f, -1.274084f, 0.625498f, 0.019317f, -0.054573f, 0.466233f, -0.160577f, 0.908967f, -0.801556f, -0.987800f, 0.786763f, -0.170874f, -1.080623f, 0.611094f, 0.063781f, 0.841579f, -0.632604f, -1.232437f, -1.083402f, 1.203171f, -0.224847f, -1.141330f, 1.217972f, 0.264655f, -0.525168f},
  {0.381015f, -0.343253f, -0.578784f, -0.188566f, -0.746399f, -0.046809f, 0.655052f, -0.077594f, -0.644359f, 0.660765f, 0.595502f, -0.449425f, 0.266084f, -0.555262f, 0.536244f, -0.256192f, 0.267909f, -0.025096f, 0.486970f, -0.370149f, 0.615954f, -0.596169f, -0.100454f, -0.849811f, 0.190236f, 0.032817f, 1.057502f, 0.546777f, -0.384578f, 0.412055f, -0.096380f, -0.598033f},
  {-0.264840f, 0.010141f, 0.180671f, 0.325074f, -0.036799f, -0.165598f, -0.348731f, 0.221211f, -0.001246f, -0.049670f, -0.218222f, 0.354415f, 0.033210f, 0.206671f, 0.064552f, -0.104882f, -0.362333f, 0.152691f, -0.327661f, -0.352611f, -0.095930f, 0.216948f, 0.270991f, 0.158740f, -0.161389f, -0.186090f, -0.006584f, -0.166930f, -0.039444f, 0.053725f, 0.012620f, -0.057432f},
  {-1.385438f, 0.813709f, 1.468280f, 1.461188f, 1.085683f, -0.811482f, -1.812395f, 1.330688f, 0.638329f, -1.041815f, -1.484289f, 1.435555f, -0.671105f, 1.352140f, 0.285020f, -0.850200f, -1.654229f, 0.605774f, -1.387359f, -0.337753f, -1.132228f, 1.418334f, 1.006127f, 1.565944f, -1.109067f, -1.273936f, -1.354113f, -1.577843f, 0.628888f, 0.421114f, 0.952341f, 1.016136f},
  {-1.864518f, 0.783663f, 1.924905f, 1.689486f, 1.759559f, -0.728765f, -2.046046f, 1.303529f, 1.779558f, -1.513032f, -1.762393f, 2.061922f, -0.620506f, 1.726224f, -0.407072f, -0.512306f, -1.718538f, 0.779887f, -1.816173f, -0.151062f, -1.503361f, 1.857674f, 1.312744f, 2.030534f, -1.417848f, -1.426043f, -2.469903f, -1.941071f, 0.600145f, -0.020761f, 0.646442f, 1.616580f},
  {-0.136801f, -0.478349f, 0.195212f, 0.524201f, 0.134810f, 0.222687f, -0.515028f, 0.982522f, -0.728002f, 0.202751f, -0.168307f, 0.100610f, 0.255189f, 0.428762f, 0.200812f, -0.205193f, -0.862937f, 0.556947f, -0.178218f, -0.224994f, 0.222368f, 0.087455f, 0.485249f, 0.108013f, -0.544362f, -0.437075f, 0.431410f, -0.175235f, -0.721828f, 0.395471f, 0.103586f, -0.563711f},
  {-0.025602f, 0.960660f, 0.424621f, 0.019815f, 0.363155f, -0.541346f, -0.114864f, -0.218770f, 1.211148f, -0.620442f, -0.508113f, 0.547086f, -0.669990f, 0.055338f, 0.155771f, -0.240280f, 0.327540f, -0.526297f, -0.510580f, 0.502880f, -0.816749f, 0.368554f, -0.029758f, 0.128834f, 0.375750f, -0.047976f, -0.898553f, -0.320416f, 1.219411f, -0.199395f, 0.369161f, 0.608107f},
  {-0.041324f, -0.412290f, -0.032929f, 0.206308f, -0.334730f, 0.029576f, -0.246074f, 0.322586f, -0.612849f, 0.439682f, 0.232675f, -0.004544f, 0.423495f, 0.070714f, 0.091767f, 0.074224f, -0.455830f, 0.547052f, -0.055024f, -0.706305f, 0.458520f, -0.144340f, 0.113297f, 0.006265f, -0.174528f, -0.113474f, 0.400330f, 0.030561f, -0.642288f, 0.136560f, -0.216221f, -0.530418f},
  {0.129536f, 0.194053f, -0.074724f, -0.143804f, -0.166884f, -0.169081f, -0.009349f, -0.325074f, 0.511333f, 0.079670f, 0.148302f, 0.093290f, 0.079418f, 0.000736f, -0.461272f, 0.268358f, 0.148351f, 0.120454f, -0.109287f, -0.310331f, 0.098175f, -0.107531f, -0.219089f, 0.154897f, 0.349591f, 0.280788f, -0.352951f, 0.228257f, 0.326076f, -0.631593f, -0.392180f, 0.097659f},
  {-0.420919f, -0.000376f, 0.555866f, 0.315692f, 0.913827f, 0.218947f, -0.746028f, 0.819078f, 0.594443f, -0.660689f, -0.539077f, 0.474062f, 0.016674f, 1.121370f, -0.595665f, 0.152816f, -0.380415f, 0.585728f, -0.289869f, 0.390083f, -0.434398f, 0.595758f, 0.577942f, 0.785052f, -0.282371f, -0.411226f, -0.789294f, -0.526535f, 0.152660f, -0.148287f, -0.105085f, 0.247695f},
  {-0.553005f, -0.557760f, 0.426698f, 0.653417f, 0.238918f, -0.008445f, -0.747995f, 0.662855f, -0.112332f, -0.047498f, -0.194784f, 0.501436f, 0.512906f, 0.648021f, -0.465017f, 0.306063f, -0.845813f, 0.937889f, -0.453297f, -0.567281f, 0.195861f, 0.495734f, 0.493398f, 0.406120f, -0.539212f, -0.508215f, 0.013372f, -0.591484f, -0.599513f, -0.249680f, -0.414441f, -0.014999f},
  {0.204932f, -1.483708f, -0.857798f, 0.848527f, -1.315880f, 0.364334f, 0.755044f, 1.241043f, -1.935039f, 1.412057f, 0.749497f, -0.961925f, 1.117016f, -0.995885f, 1.852697f, -1.324103f, -1.144600f, 0.937765f, 0.781676f, -1.327398f, 1.346521f, -0.800120f, 0.760876f, -1.386441f, -1.309554f, -1.018637f, 2.067481f, 0.659630f, -1.732086f, 1.947910f, 0.491810f, -1.554217f},
  {-0.246187f, -0.877845f, 0.218723f, -0.372122f, 0.416038f, 0.675803f, -0.677829f, -0.366982f, 1.549421f, -0.313489f, 0.804301f, 0.485327f, 1.488824f, 0.845958f, -2.426406f, 2.017493f, -0.224425f, 1.314732f, -0.130230f, -0.878509f, 0.946902f, -0.036724f, -0.376158f, 1.460628f, 0.448175f, 0.662185f, -2.074196f, 0.071059f, -0.550710f, -2.511510f, -1.989676f, 0.179422f},
  {0.188649f, -0.299985f, -0.220927f, -0.117640f, -0.104283f, 0.234282f, 0.078901f, 0.159805f, -0.160471f, 0.250450f, 0.185982f, -0.241095f, 0.221841f, 0.102733f, -0.078599f, 0.051334f, 0.129690f, 0.256128f, 0.338439f, 0.207347f, 0.289559f, -0.230720f, 0.060983f, -0.296957f, 0.182565f, 0.095137f, 0.441029f, 0.227797f, -0.209326f, 0.121751f, -0.208068f, -0.333825f},
  {2.805353f, 2.073835f, -2.433811f, -2.718112f, -1.737303f, 1.127945f, 2.195295f, -2.404329f, 2.331263f, 1.283386f, 2.438045f, -2.240005f, 0.345891f, -2.172740f, -1.937885f, 2.564182f, 2.727600f, -2.737670f, 2.130465f, 1.036969f, 2.065752f, -2.724637f, -2.398612f, -1.830827f, 3.065429f, 2.892543f, -1.639542f, 2.673533f, 2.909986f, -2.540482f, -2.499293f, -1.896000f},
  {-0.128036f, 0.808053f, 0.390954f, -0.113890f, 0.300508f, -0.386175f, -0.269670f, -0.395663f, 1.537925f, -0.548202f, -0.361705f, 0.464143f, -0.321409f, 0.203926f, -0.449596f, 0.219422f, 0.293798f, -0.212869f, -0.454217f, 0.277993f, -0.541297f, 0.200985f, -0.186719f, 0.472859f, 0.488571f, 0.254231f, -1.222443f, -0.252380f, 0.995692f, -0.726162f, -0.122105f, 0.783557f},
  {-0.628983f, -0.524401f, 0.533692f, 0.920128f, 0.283805f, -0.171094f, -0.602128f, 0.865861f, -0.309204f, -0.065352f, -0.418506f, 0.353734f, 0.257892f, 0.527827f, -0.146714f, -0.153936f, -0.877568f, 0.871929f, -0.513489f, -0.462004f, 0.041038f, 0.484822f, 0.754254f, 0.189620f, -0.944201f, -0.899046f, 0.162151f, -0.503150f, -0.647740f, 0.163737f, -0.112331f, 0.032388f},
  {0.374934f, 0.684158f, -0.268760f, -0.401892f, -0.382246f, -0.298783f, 0.481060f, -0.508267f, 0.249067f, 0.092890f, 0.022959f, -0.076923f, -0.511319f, -0.551637f, 0.607623f, -0.185553f, 0.659610f, -0.807073f, 0.053632f, 0.112490f, -0.217237f, -0.403396f, -0.395683f, -0.420816f, 0.542136f, 0.394666f, 0.015595f, 0.215172f, 0.624979f, -0.004574f, 0.307794f, 0.119154f},
  {2.373697f, 1.878969f, -2.082409f, -2.370050f, -1.418201f, 1.095447f, 1.876288f, -2.083381f, 2.234426f, 1.041809f, 2.098451f, -1.916197f, 0.291723f, -1.925668f, -1.798176f, 2.286321f, 2.430781f, -2.353619f, 1.844558f, 0.874774f, 1.711956f, -2.346110f, -2.158414f, -1.484209f, 2.629194f, 2.514887f, -1.703656f, 2.307353f, 2.642838f, -2.298419f, -2.127919f, -1.548747f},
  {0.081999f, -1.278336f, -0.544190f, 0.571181f, -0.753658f, 0.390701f, 0.492267f, 1.168208f, -1.555248f, 1.088990f, 0.554878f, -0.840424f, 0.848507f, -0.392941f, 1.341946f, -0.957459f, -0.887527f, 0.868884f, 0.646321f, -0.488920f, 1.028310f, -0.536969f, 0.727240f, -1.069979f, -1.082456f, -0.801666f, 1.657199f, 0.501471f, -1.494545f, 1.599912f, 0.428265f, -1.215724f},
  {1.270530f, 1.243470f, -0.944438f, -1.320030f, -0.645943f, 0.152786f, 1.054374f, -1.376210f, 1.764239f, 0.171100f, 0.725524f, -0.647106f, -0.399112f, -1.006774f, -0.297823f, 0.636993f, 1.540244f, -1.476043f, 0.588253f, 0.855066f, 0.003807f, -1.100460f, -1.206306f, -0.781899f, 1.731981f, 1.426431f, -1.038249f, 1.016902f, 1.776783f, -0.957501f, -0.371182f, -0.198484f},
  {0.688788f, 0.428472f, -0.498756f, -0.992781f, -0.309486f, 0.250186f, 0.354456f, -0.994378f, 1.458919f, 0.011312f, 0.714367f, -0.336350f, 0.193739f, -0.330826f, -1.004805f, 1.208998f, 0.843735f, -0.515939f, 0.318874f, -0.031755f, 0.365394f, -0.644644f, -0.865667f, 0.101334f, 1.260476f, 1.152786f, -1.459306f, 0.625972f, 1.004238f, -1.457271f, -1.013708f, -0.072831f},
  {-0.536621f, -0.090207f, 0.339354f, 1.046611f, -0.003936f, -0.509250f, -0.220124f, 0.954733f, -0.438789f, -0.034363f, -0.613954f, 0.296448f, -0.271717f, 0.082611f, 0.852005f, -0.996349f, -0.677179f, 0.145139f, -0.316274f, -0.041111f, -0.261283f, 0.459952f, 1.064355f, -0.384020f, -1.236184f, -1.287934f, 0.722484f, -0.467600f, -0.227725f, 0.972035f, 0.775650f, 0.087183f},
  {1.383560f, 1.283782f, -1.126174f, -1.569913f, -0.581361f, 0.413896f, 1.150920f, -1.574172f, 2.031998f, 0.157085f, 1.126590f, -0.989472f, -0.179013f, -0.978160f, -0.582401f, 1.148089f, 1.663560f, -1.362298f, 0.941631f, 0.748789f, 0.519111f, -1.246015f, -1.384406f, -0.696855f, 1.979382f, 1.691342f, -1.560815f, 1.252073f, 1.853742f, -1.359062f, -0.935159f, -0.461778f},
  {-0.623359f, 0.959335f, 0.894965f, 0.566543f, 0.931965f, -0.494104f, -0.740545f, 0.543017f, 1.246163f, -1.145758f, -0.962460f, 0.878313f, -0.768845f, 0.781438f, 0.080395f, -0.517838f, -0.302729f, -0.176745f, -0.713275f, 0.510521f, -1.095976f, 0.889910f, 0.614329f, 0.745618f, -0.422059f, -0.600327f, -1.253967f, -0.963910f, 1.028474f, 0.085823f, 0.709883f, 0.943081f},
  {-0.904544f, 1.219024f, 0.853566f, 1.326576f, 0.549748f, -1.101585f, -0.503870f, 1.091644f, 0.341015f, -0.768173f, -1.316687f, 0.908719f, -1.550306f, 0.254878f, 2.155655f, -1.984398f, -0.656741f, -1.182086f, -1.044467f, 0.642499f, -1.357518f, 1.079931f, 1.061153f, -0.143248f, -1.047255f, -1.411245f, 0.005239f, -1.012255f, 0.918045f, 1.906817f, 2.042605f, 0.730392f},
  {0.377443f, -1.818482f, -1.120358f, 0.562652f, -1.442670f, 0.808224f, 0.851717f, 1.200817f, -2.083836f, 1.543414f, 1.145501f, -1.134303f, 1.767198f, -0.905608f, 1.445736f, -0.933804f, -1.042898f, 1.488848f, 0.991813f, -1.645358f, 1.813563f, -1.064921f, 0.591026f, -1.287007f, -1.123597f, -0.797001f, 2.053553f, 1.004073f, -2.016906f, 1.587443f, -0.040887f, -1.797910f},
  {-0.524893f, -0.092196f, 0.388568f, 0.729459f, 0.266777f, -0.265354f, -0.398311f, 0.601322f, -0.151128f, -0.091198f, -0.516825f, 0.392723f, -0.156943f, 0.325819f, 0.376053f, -0.379797f, -0.648664f, 0.329234f, -0.477682f, -0.167242f, -0.167970f, 0.508535f, 0.646441f, 0.035249f, -0.706789f, -0.783174f, 0.191698f, -0.573093f, -0.234167f, 0.564101f, 0.321661f, 0.113911f},
  {0.017021f, 0.201285f, -0.004836f, 0.176889f, -0.150078f, -0.172279f, 0.067362f, 0.150901f, -0.090861f, -0.026371f, -0.091874f, 0.053216f, -0.236749f, -0.143480f, 0.205203f, -0.266616f, -0.024325f, -0.112916f, -0.145554f, -0.138915f, -0.168090f, 0.033911f, 0.106652f, -0.119799f, -0.117720f, -0.207084f, 0.261713f, -0.059179f, 0.127548f, 0.197899f, 0.338536f, 0.056012f},
  {1.655927f, 0.853733f, -1.497801f, -1.627549f, -1.023786f, 0.709223f, 1.341919f, -1.503423f, 1.393967f, 0.708787f, 1.545822f, -1.358483f, 0.421526f, -1.311083f, -1.052421f, 1.607846f, 1.668314f, -1.307238f, 1.384109f, 0.389506f, 1.314342f, -1.757177f, -1.544923f, -0.827116f, 1.902220f, 1.822465f, -0.872738f, 1.660864f, 1.537461f, -1.546123f, -1.591471f, -1.061293f},
  {1.833155f, 1.047437f, -1.665393f, -1.770426f, -1.127914f, 0.820330f, 1.488293f, -1.623684f, 1.347662f, 0.995678f, 1.621034f, -1.468318f, 0.342231f, -1.420952f, -1.130044f, 1.683377f, 1.732901f, -1.565917f, 1.456652f, 0.539940f, 1.419430f, -1.827815f, -1.567700f, -1.333939f, 2.033156f, 1.900854f, -0.837314f, 1.766421f, 1.687941f, -1.663079f, -1.567437f, -1.362157f},
  {1.377625f, 1.095306f, -1.193672f, -1.421718f, -0.786282f, 0.475961f, 1.168484f, -1.274341f, 1.385824f, 0.395922f, 1.193502f, -0.952227f, -0.054274f, -1.139768f, -0.641834f, 1.073513f, 1.564636f, -1.592105f, 1.042415f, 0.567547f, 0.704417f, -1.371738f, -1.264909f, -0.704240f, 1.571754f, 1.429954f, -0.957190f, 1.300965f, 1.729897f, -1.168844f, -0.867827f, -0.559463f},
  {-0.120770f, -0.470423f, 0.068633f, 0.146159f, 0.062442f, 0.254071f, -0.264923f, 0.370433f, -0.389565f, 0.076348f, 0.136413f, 0.021697f, 0.385009f, 0.269773f, -0.424024f, 0.294746f, -0.367053f, 0.637173f, 0.057606f, -0.149806f, 0.298297f, 0.037362f, 0.220925f, 0.261470f, -0.310232f, -0.175451f, 0.091801f, -0.034432f, -0.498222f, -0.209908f, -0.328671f, -0.158343f},
  {1.024270f, -1.489372f, -1.365544f, 0.070567f, -1.486488f, 0.802644f, 1.300458f, 0.945403f, -1.897655f, 1.553687f, 1.367746f, -1.378399f, 1.467094f, -1.310816f, 1.942876f, -1.247654f, -0.527786f, 0.754249f, 1.132718f, -1.202826f, 1.693547f, -1.302462f, 0.360792f, -1.656034f, -0.707461f, -0.526902f, 2.082138f, 1.386765f, -1.694787f, 1.767058f, 0.157776f, -1.806695f},
  {-1.120624f, 0.593634f, 1.266268f, 1.119899f, 1.087822f, -0.576764f, -1.034825f, 0.693392f, 1.040181f, -0.933021f, -1.114919f, 1.296210f, -0.562283f, 0.834310f, 0.076254f, -0.477659f, -0.899189f, 0.220488f, -1.154051f, 0.031701f, -0.973434f, 1.162124f, 0.847866f, 1.069571f, -1.033686f, -0.925974f, -1.416406f, -1.260108f, 0.591406f, 0.275129f, 0.684844f, 1.083831f},
  {0.539732f, 0.750572f, -0.276352f, -0.625866f, 0.251617f, 0.266727f, 0.351717f, -0.589463f, 1.240816f, -0.307760f, 0.218162f, -0.263501f, -0.272729f, -0.132237f, -0.182181f, 0.392949f, 0.753227f, -0.697451f, 0.273437f, 0.784155f, -0.181539f, -0.277339f, -0.413812f, -0.204193f, 0.919832f, 0.609275f, -0.848932f, 0.372084f, 1.171995f, -0.327413f, -0.111276f, -0.078565f},
  {-0.709528f, 0.094999f, 0.775774f, 0.733128f, 0.477382f, -0.384389f, -0.781490f, 0.685921f, 0.349301f, -0.511232f, -0.662444f, 0.786356f, -0.223371f, 0.582914f, -0.065881f, -0.249275f, -0.694898f, 0.325878f, -0.656729f, -0.088134f, -0.427737f, 0.693790f, 0.650222f, 0.424980f, -0.701864f, -0.663898f, -0.472629f, -0.824586f, 0.099875f, 0.123568f, 0.244771f, 0.537083f},
  {0.364461f, -0.670604f, -0.660104f, -0.437399f, -0.626257f, 0.432091f, 0.197025f, -0.111747f, -0.619607f, 0.686953f, 0.877552f, -0.521129f, 0.848738f, -0.125784f, -0.367651f, 0.543350f, 0.028235f, 0.504255f, 0.540748f, -0.621913f, 0.961763f, -0.599130f, -0.332182f, -0.162777f, 0.196687f, 0.450429f, 0.470203f, 0.710242f, -0.710769f, -0.337020f, -0.782836f, -0.845559f},
  {1.462186f, 0.619507f, -1.302013f, -1.471743f, -0.873322f, 0.659601f, 1.093143f, -1.329693f, 1.195732f, 0.705470f, 1.387981f, -1.169355f, 0.450996f, -0.995578f, -1.202219f, 1.462535f, 1.415927f, -1.021221f, 1.126200f, 0.264532f, 1.109348f, -1.428606f, -1.340951f, -0.748816f, 1.682319f, 1.633389f, -1.038290f, 1.400080f, 1.183825f, -1.551718f, -1.359821f, -0.969141f},
  {2.018353f, 1.318569f, -1.882543f, -1.976599f, -1.509565f, 1.034419f, 1.753438f, -1.763007f, 1.450926f, 1.124522f, 1.780001f, -1.745828f, 0.400545f, -1.692794f, -1.126624f, 1.784698f, 1.979608f, -1.950543f, 1.743112f, 0.950195f, 1.743641f, -1.983399f, -1.718505f, -1.546673f, 2.105557f, 2.046962f, -0.684614f, 1.941890f, 1.938944f, -1.617451f, -1.754916f, -1.673536f},
  {-0.168715f, -0.401313f, -0.124140f, 0.559030f, -0.292459f, -0.113473f, 0.063128f, 0.738506f, -0.792612f, 0.476271f, 0.010411f, -0.122853f, 0.189128f, -0.130529f, 0.723503f, -0.711399f, -0.589196f, 0.319618f, -0.046875f, -0.498155f, 0.242851f, 0.019355f, 0.563464f, -0.512125f, -0.708833f, -0.622383f, 0.847821f, -0.075149f, -0.632267f, 0.852492f, 0.415604f, -0.516700f},
  {1.652286f, 1.133527f, -1.530554f, -1.658911f, -1.025178f, 0.880095f, 1.375627f, -1.483657f, 1.370926f, 0.857677f, 1.557981f, -1.371394f, 0.352812f, -1.316027f, -1.180207f, 1.572901f, 1.585974f, -1.760283f, 1.375686f, 0.696582f, 1.291762f, -1.608140f, -1.468461f, -1.175583f, 1.834759f, 1.786699f, -0.837464f, 1.613403f, 1.756233f, -1.525074f, -1.480493f, -1.328351f},
  {-0.962590f, 0.123827f, 0.995293f, 0.790692f, 0.912678f, -0.239352f, -1.090742f, 0.618404f, 0.843715f, -0.736788f, -0.725134f, 0.997315f, -0.126274f, 0.848329f, -0.391489f, 0.110985f, -0.835831f, 0.523065f, -0.766327f, -0.231204f, -0.555714f, 0.908026f, 0.541005f, 1.019637f, -0.645390f, -0.694573f, -1.239960f, -1.043292f, 0.132285f, -0.276841f, -0.089964f, 0.852886f},
  {-0.707926f, 0.022736f, 0.768435f, 0.555682f, 0.743101f, -0.178022f, -0.860323f, 0.384545f, 0.836516f, -0.618670f, -0.432413f, 0.843323f, 0.181002f, 0.773635f, -0.536375f, 0.223771f, -0.669886f, 0.573078f, -0.628985f, -0.252804f, -0.215719f, 0.666849f, 0.458672f, 0.967468f, -0.358099f, -0.461063f, -1.060839f, -0.654647f, 0.066544f, -0.472432f, -0.220216f, 0.567459f},
  {0.427286f, -0.311227f, -0.417076f, 0.026053f, -0.579676f, -0.114538f, 0.488156f, 0.087753f, -0.734726f, 0.643262f, 0.379082f, -0.386660f, 0.330778f, -0.532182f, 0.773396f, -0.423458f, 0.092456f, -0.069854f, 0.213923f, -0.391768f, 0.585283f, -0.590313f, -0.052324f, -0.617600f, -0.091286f, 0.032786f, 0.819132f, 0.489943f, -0.447324f, 0.474156f, 0.070141f, -0.605406f},
  {-0.055360f, 1.014602f, 0.386223f, 0.183554f, 0.343604f, -0.615916f, 0.082944f, -0.166810f, 1.080641f, -0.664109f, -0.620396f, 0.393036f, -0.805897f, -0.100752f, 0.565904f, -0.618391f, 0.530944f, -0.793845f, -0.597868f, 0.514187f, -0.885024f, 0.340147f, 0.061649f, -0.252114f, 0.205461f, -0.153799f, -0.594729f, -0.346142f, 1.166893f, 0.335325f, 0.663096f, 0.786591f},
  {1.357813f, 1.043732f, -1.236127f, -1.389258f, -0.877202f, 0.493255f, 1.053245f, -1.194751f, 1.157338f, 0.527737f, 1.148394f, -1.065794f, 0.085359f, -1.044036f, -0.883188f, 1.265441f, 1.365911f, -1.266728f, 1.059042f, 0.357353f, 0.901358f, -1.321736f, -1.115613f, -0.942659f, 1.579788f, 1.431889f, -0.910172f, 1.247177f, 1.415241f, -1.260181f, -1.143581f, -0.858160f},
  {0.149026f, 1.245682f, 0.031269f, -0.202974f, 0.051407f, -0.452257f, 0.354506f, -0.362201f, 1.454357f, -0.437768f, -0.296201f, 0.151485f, -0.933501f, -0.345992f, 0.588363f, -0.476723f, 0.590987f, -1.039910f, -0.245323f, 0.798041f, -0.829305f, 0.085086f, -0.155439f, -0.538845f, 0.428134f, 0.039983f, -0.379767f, 0.039201f, 1.534801f, 0.233960f, 0.682902f, 0.741863f},
  {-0.732688f, 0.218858f, 0.760462f, 0.671604f, 0.818204f, -0.308761f, -0.703865f, 0.494177f, 0.794438f, -0.669529f, -0.618180f, 0.818254f, -0.145961f, 0.673502f, -0.250169f, -0.070691f, -0.373219f, 0.414369f, -0.680929f, -0.032081f, -0.422222f, 0.710624f, 0.425745f, 0.609829f, -0.480708f, -0.634339f, -0.829733f, -0.802659f, 0.285341f, -0.154464f, 0.053826f, 0.705709f},
  {-1.052163f, 1.859095f, 1.173242f, 1.206664f, 1.018009f, -1.041135f, -0.584388f, 0.756190f, 1.318053f, -1.302364f, -1.500620f, 1.206489f, -1.964854f, 0.512162f, 1.951420f, -1.922589f, -0.291082f, -1.319373f, -1.125328f, 1.265578f, -1.827273f, 1.241119f, 1.062792f, 0.052534f, -0.926107f, -1.329788f, -0.657545f, -1.294662f, 1.852854f, 1.673652f, 2.046915f, 1.497005f},
  {1.558728f, 1.062761f, -1.424950f, -1.560913f, -0.962704f, 0.627101f, 1.279871f, -1.410618f, 1.282495f, 0.776513f, 1.401323f, -1.291417f, 0.201971f, -1.243769f, -0.939355f, 1.459151f, 1.530398f, -1.486544f, 1.201879f, 0.610439f, 1.140750f, -1.538586f, -1.355126f, -1.072590f, 1.765470f, 1.605310f, -0.719045f, 1.492897f, 1.683315f, -1.357571f, -1.326724f, -1.077518f},
  {-1.203993f, 1.794634f, 1.203174f, 1.199386f, 1.105788f, -1.144697f, -0.692690f, 0.894666f, 1.351321f, -1.238758f, -1.526888f, 1.198551f, -1.745348f, 0.641303f, 1.832772f, -1.783061f, -0.493361f, -1.200938f, -1.182286f, 0.925945f, -1.783809f, 1.363052f, 1.168036f, 0.324604f, -1.016952f, -1.445618f, -0.727698f, -1.371664f, 1.777755f, 1.668712f, 1.929923f, 1.594799f},
  {0.794189f, 0.098851f, -0.789797f, -0.792567f, -0.617321f, 0.366264f, 0.691040f, -0.729188f, 0.098463f, 0.445557f, 0.751261f, -0.604206f, 0.262689f, -0.628571f, -0.203696f, 0.634445f, 0.728717f, -0.632613f, 0.581674f, 0.056095f, 0.595325f, -0.817876f, -0.754414f, -0.449517f, 0.797126f, 0.890008f, 0.013479f, 0.848753f, 0.280284f, -0.537960f, -0.630279f, -0.463809f},
  {-0.596469f, 0.298512f, 0.457643f, 0.750825f, 0.328438f, -0.463486f, -0.380587f, 0.661665f, 0.124029f, -0.378561f, -0.644992f, 0.489700f, -0.449203f, 0.242460f, 0.409439f, -0.645127f, -0.450923f, -0.041198f, -0.584285f, 0.098028f, -0.570607f, 0.656359f, 0.739705f, 0.067464f, -0.759528f, -0.832871f, 0.041982f, -0.625419f, 0.208455f, 0.562862f, 0.551350f, 0.476647f},
  {0.938392f, -0.830417f, -1.071777f, -0.587387f, -1.147077f, 0.676015f, 0.986464f, -0.239974f, -0.932729f, 1.097995f, 1.158266f, -1.057902f, 1.145489f, -0.991850f, 0.353414f, 0.304991f, 0.422599f, 0.170406f, 1.023059f, -0.506626f, 1.261795f, -1.125095f, -0.447999f, -1.045375f, 0.390409f, 0.499085f, 1.078019f, 1.153465f, -0.812328f, 0.147684f, -0.771374f, -1.309967f},
  {1.529261f, 1.208033f, -1.430993f, -1.467373f, -1.216247f, 0.720743f, 1.366197f, -1.329035f, 1.197205f, 0.912788f, 1.426014f, -1.379672f, -0.059873f, -1.264618f, -0.340644f, 1.177796f, 1.553847f, -1.768505f, 1.263259f, 0.661655f, 1.176408f, -1.461778f, -1.306633f, -1.375234f, 1.694919f, 1.550453f, -0.291858f, 1.477904f, 1.793457f, -1.074101f, -1.084729f, -1.269800f},
  {-0.515321f, 0.493713f, 0.635849f, 0.729069f, 0.649131f, -0.234970f, -0.422928f, 0.658238f, 0.383842f, -0.555415f, -0.768333f, 0.510869f, -0.598442f, 0.526734f, 0.544618f, -0.746363f, -0.395965f, 0.014387f, -0.416247f, 0.430008f, -0.657732f, 0.629601f, 0.712344f, 0.121282f, -0.553486f, -0.814772f, -0.177227f, -0.678952f, 0.447734f, 0.783826f, 0.765460f, 0.537917f},
  {1.498038f, 1.070011f, -1.426336f, -1.488674f, -0.949193f, 0.616471f, 1.178942f, -1.304142f, 1.128650f, 0.737209f, 1.480961f, -1.290781f, 0.045870f, -1.101023f, -0.758018f, 1.261759f, 1.466802f, -1.423736f, 1.254108f, 0.383455f, 1.145267f, -1.453864f, -1.306566f, -1.210068f, 1.707543f, 1.552588f, -0.640035f, 1.470753f, 1.530758f, -1.338019f, -1.240665f, -1.075590f},
  {1.667790f, 1.239930f, -1.435735f, -1.611263f, -0.905338f, 0.802860f, 1.340915f, -1.506886f, 1.490017f, 0.697745f, 1.504096f, -1.289765f, 0.103072f, -1.302466f, -1.241674f, 1.565002f, 1.643102f, -1.618695f, 1.305608f, 0.746887f, 1.174116f, -1.572503f, -1.493786f, -1.115249f, 1.862701f, 1.696981f, -1.095420f, 1.576145f, 1.754246f, -1.622683f, -1.452891f, -1.128258f},
  {-0.907041f, 0.725280f, 0.945611f, 0.805680f, 0.673384f, -0.368628f, -1.082064f, 0.572595f, 0.712302f, -0.711198f, -0.891466f, 0.954557f, -0.560288f, 0.777720f, 0.415178f, -0.487621f, -0.870969f, -0.101936f, -0.820505f, 0.123482f, -0.933566f, 0.817805f, 0.507580f, 1.093474f, -0.496586f, -0.574349f, -1.183619f, -0.989259f, 0.637905f, 0.515571f, 0.719124f, 0.910141f},
  {1.294632f, 0.769413f, -1.134584f, -1.261033f, -0.632217f, 0.590867f, 0.936728f, -1.202705f, 1.159349f, 0.383684f, 1.207021f, -1.031277f, 0.240345f, -0.863770f, -1.189931f, 1.309050f, 1.306069f, -1.097434f, 1.059115f, 0.372630f, 0.854690f, -1.180596f, -1.178000f, -0.667497f, 1.511039f, 1.387658f, -0.991386f, 1.197144f, 1.314411f, -1.316461f, -1.392160f, -0.562167f},
  {-1.149492f, 2.151108f, 1.243890f, 1.206020f, 1.184199f, -1.270560f, -0.688706f, 0.937443f, 1.667164f, -1.391114f, -1.669314f, 1.273075f, -2.197499f, 0.677355f, 2.663681f, -2.258330f, -0.547257f, -1.715116f, -1.265092f, 1.505920f, -2.091169f, 1.365201f, 1.146938f, 0.229613f, -1.108742f, -1.385331f, -0.828475f, -1.374453f, 2.271119f, 2.168216f, 2.409457f, 1.802401f},
  {1.022376f, -0.624798f, -1.090240f, -0.695074f, -0.978722f, 0.608650f, 1.031712f, -0.300626f, -0.803594f, 1.016260f, 1.053496f, -0.957998f, 0.812960f, -0.993198f, 0.493745f, 0.378234f, 0.519481f, -0.094300f, 0.904877f, -0.514010f, 1.088446f, -1.138618f, -0.550448f, -0.959966f, 0.534856f, 0.571618f, 0.884821f, 1.075327f, -0.606880f, 0.248763f, -0.747147f, -1.154710f},
  {-0.864751f, 1.765687f, 0.991978f, 1.040387f, 0.766147f, -1.013804f, -0.500651f, 0.628912f, 1.259545f, -1.108892f, -1.381721f, 1.088189f, -1.765151f, 0.370550f, 2.093731f, -1.932020f, -0.230838f, -1.522432f, -0.995112f, 1.016228f, -1.710310f, 1.054158f, 0.932932f, -0.176538f, -0.817273f, -1.227877f, -0.502647f, -1.126384f, 1.725673f, 1.662818f, 2.011146f, 1.400244f},
  {-0.861753f, 0.735063f, 0.947943f, 0.844635f, 0.647364f, -0.666699f, -0.569908f, 0.713301f, 0.847070f, -0.841459f, -1.075912f, 0.932868f, -0.722741f, 0.375817f, 0.519350f, -0.747232f, -0.317903f, -0.378422f, -0.859590f, 0.445053f, -1.030251f, 0.919274f, 0.740374f, 0.420972f, -0.762464f, -0.888223f, -0.590216f, -0.973734f, 0.805610f, 0.537176f, 0.810465f, 1.091190f},
  {1.241141f, 0.179894f, -1.107531f, -1.304461f, -0.036645f, 0.718788f, 1.031840f, -0.591281f, 0.458094f, 0.214208f, 0.948099f, -1.094222f, -0.113770f, -0.244558f, -0.178585f, 0.838110f, 1.357588f, -0.983032f, 1.156414f, 0.920373f, 0.521354f, -1.096775f, -0.688632f, -1.040022f, 1.403284f, 1.197908f, -0.030449f, 1.083099f, 0.659970f, -0.138666f, -0.572740f, -0.553760f},
  {-1.072900f, 0.408655f, 1.074824f, 1.023246f, 0.961689f, -0.645434f, -1.003772f, 0.742868f, 0.981051f, -0.861722f, -0.971602f, 1.183219f, -0.358223f, 0.846235f, -0.235132f, -0.289524f, -0.765514f, 0.455498f, -0.948228f, 0.011861f, -0.773328f, 1.063521f, 0.800122f, 1.044862f, -0.921596f, -0.911100f, -1.232066f, -1.148530f, 0.371502f, 0.060250f, 0.285458f, 1.085982f},
  {-1.124157f, 0.654147f, 1.207463f, 0.999508f, 1.043950f, -0.704416f, -0.952121f, 0.673656f, 1.135458f, -1.077660f, -1.187090f, 1.186972f, -0.632314f, 0.842415f, 0.113043f, -0.488499f, -0.790064f, 0.134707f, -1.058388f, 0.198082f, -1.080210f, 1.133633f, 0.771108f, 0.843094f, -0.924205f, -0.941919f, -1.198893f, -1.142364f, 0.726378f, 0.239223f, 0.653352f, 1.228069f},
  {-0.731264f, 0.451297f, 0.833965f, 0.673093f, 0.835917f, -0.336126f, -0.576784f, 0.213270f, 0.784920f, -0.609221f, -0.671688f, 0.800890f, -0.399970f, 0.534182f, 0.017266f, -0.177898f, -0.390138f, 0.106193f, -0.760373f, 0.258600f, -0.613722f, 0.718512f, 0.430028f, 0.587137f, -0.355751f, -0.567154f, -0.943530f, -0.820949f, 0.471077f, -0.000767f, 0.262055f, 0.909889f},
  {-0.995156f, 0.394320f, 0.993752f, 0.883235f, 0.855213f, -0.476065f, -0.759923f, 0.575300f, 1.090108f, -0.779323f, -0.906253f, 1.038837f, -0.333636f, 0.724748f, -0.054065f, -0.280868f, -0.615551f, 0.169666f, -0.906080f, -0.002771f, -0.755058f, 1.035567f, 0.706565f, 0.614460f, -0.661465f, -0.899015f, -0.982464f, -1.057402f, 0.404713f, -0.039654f, 0.214550f, 1.023793f},
  {0.915193f, -1.193868f, -1.069472f, -0.211289f, -1.240356f, 0.781073f, 1.070613f, 0.546471f, -1.461520f, 1.199056f, 1.092966f, -1.084725f, 1.286823f, -1.151688f, 1.427056f, -0.731584f, -0.203325f, 0.700770f, 0.971425f, -1.059766f, 1.364171f, -1.145291f, -0.051836f, -1.203099f, -0.217196f, -0.074620f, 1.626582f, 1.193401f, -1.396943f, 1.457479f, -0.361317f, -1.451887f},
  {1.477968f, 0.916303f, -1.345887f, -1.425833f, -0.986741f, 0.746018f, 1.185192f, -1.298572f, 1.248133f, 0.670871f, 1.298207f, -1.248869f, 0.353569f, -1.136983f, -1.176078f, 1.483915f, 1.416700f, -1.541741f, 1.191929f, 0.848093f, 1.166430f, -1.450305f, -1.324354f, -1.053916f, 1.626712f, 1.527767f, -0.874479f, 1.456554f, 1.520824f, -1.402495f, -1.402328f, -1.133187f},
  {1.208294f, 0.947524f, -1.131219f, -1.164774f, -0.810404f, 0.545857f, 0.981960f, -1.114813f, 0.983461f, 0.585407f, 1.108170f, -1.018759f, 0.195138f, -1.009622f, -0.652871f, 1.067841f, 1.280090f, -1.267291f, 0.956207f, 0.505420f, 0.902348f, -1.212163f, -1.086615f, -0.943510f, 1.408707f, 1.307614f, -0.652647f, 1.225318f, 1.283545f, -1.000726f, -1.021474f, -0.940975f},
  {1.309865f, 1.160371f, -1.200743f, -1.270824f, -0.805634f, 0.668428f, 1.080909f, -1.230602f, 1.195558f, 0.698157f, 1.158993f, -1.125668f, 0.238962f, -1.048371f, -1.008056f, 1.270160f, 1.372285f, -1.299155f, 1.100630f, 0.608300f, 1.007700f, -1.286440f, -1.178578f, -0.945143f, 1.466665f, 1.405690f, -0.948097f, 1.318393f, 1.471749f, -1.301268f, -1.221169f, -0.908601f},
  {0.082507f, -0.012825f, -0.149950f, 0.144841f, -0.390886f, -0.347792f, 0.382342f, 0.327476f, -0.317355f, 0.180599f, -0.110934f, -0.147187f, -0.152104f, -0.339843f, 0.654177f, -0.657871f, 0.032889f, -0.208687f, 0.134337f, 0.051365f, -0.061266f, -0.082939f, 0.328408f, -0.673096f, -0.393643f, -0.444386f, 0.785968f, 0.101975f, 0.018986f, 0.641627f, 0.516969f, -0.072603f},
  {0.311279f, 1.377855f, -0.181097f, -0.175895f, 0.008625f, -0.493408f, 0.657106f, -0.462917f, 1.373954f, -0.470881f, -0.304098f, 0.120930f, -1.059285f, -0.461320f, 0.628791f, -0.528507f, 0.826250f, -1.326259f, -0.090492f, 0.983023f, -0.824167f, -0.050377f, -0.164150f, -0.480578f, 0.363269f, 0.085617f, -0.068291f, 0.093206f, 1.575904f, 0.311794f, 0.644918f, 0.642257f},
  {-0.695211f, 0.457041f, 0.735889f, 0.653499f, 0.596656f, -0.303482f, -0.705578f, 0.529737f, 0.637163f, -0.581563f, -0.731015f, 0.721775f, -0.431610f, 0.499238f, 0.153216f, -0.326302f, -0.533384f, 0.005600f, -0.653165f, -0.053828f, -0.684815f, 0.740521f, 0.469703f, 0.608842f, -0.588025f, -0.659593f, -0.749516f, -0.761640f, 0.352427f, 0.107131f, 0.432017f, 0.801792f},
  {-0.309618f, 0.381284f, 0.217701f, 0.730770f, 0.235035f, -0.632209f, -0.025729f, 0.674160f, -0.111794f, -0.180608f, -0.692649f, 0.247959f, -0.819620f, -0.049882f, 1.813064f, -1.506743f, -0.233862f, -0.723509f, -0.361334f, 0.616566f, -0.630152f, 0.468380f, 0.705556f, -0.640863f, -0.720492f, -0.888531f, 0.536951f, -0.378071f, 0.397398f, 1.509453f, 1.447257f, 0.250282f},
  {0.274628f, 0.555412f, -0.032597f, -0.160282f, 0.316962f, 0.044735f, 0.145483f, -0.037389f, 0.468071f, -0.412069f, -0.156813f, 0.008439f, -0.592273f, 0.139247f, 0.319487f, -0.110108f, 0.374773f, -0.597902f, -0.013155f, 0.671444f, -0.372072f, -0.001813f, -0.101668f, -0.019736f, 0.317574f, 0.216236f, -0.300484f, 0.003504f, 0.700509f, 0.246701f, 0.370124f, -0.020574f},
  {-0.349826f, -0.119481f, 0.228566f, 0.677070f, 0.018116f, -0.367421f, -0.050291f, 0.588665f, -0.375589f, 0.104769f, -0.359318f, 0.139600f, -0.242385f, 0.062762f, 0.943937f, -0.848992f, -0.659190f, -0.005631f, -0.207722f, -0.082094f, -0.202770f, 0.304830f, 0.531434f, -0.354441f, -0.695594f, -0.727656f, 0.501850f, -0.374205f, -0.178056f, 0.804853f, 0.802430f, -0.073700f},
  {-0.568675f, 0.676177f, 0.751487f, 0.601788f, 0.680188f, -0.426037f, -0.416649f, 0.361209f, 0.802185f, -0.689499f, -0.826450f, 0.697423f, -0.735259f, 0.369774f, 0.366154f, -0.570887f, -0.333667f, -0.229076f, -0.680780f, 0.471732f, -0.816485f, 0.691947f, 0.423397f, 0.276412f, -0.452131f, -0.637554f, -0.618011f, -0.763478f, 0.733818f, 0.466740f, 0.671547f, 0.825226f},
  {-0.650730f, 0.891315f, 0.628516f, 0.632909f, 0.479076f, -0.446814f, -0.577433f, 0.498861f, 0.415946f, -0.499346f, -0.830600f, 0.616928f, -0.888859f, 0.425835f, 0.818714f, -0.915509f, -0.314832f, -0.500486f, -0.669829f, 0.320127f, -0.987524f, 0.646999f, 0.427452f, 0.373094f, -0.337905f, -0.620219f, -0.594409f, -0.689740f, 0.783203f, 0.706168f, 1.052363f, 0.801030f},
  {0.901354f, 0.351650f, -0.810845f, -0.890787f, -0.505971f, 0.210384f, 0.726192f, -0.910825f, 0.994588f, 0.348528f, 0.745345f, -0.709868f, 0.119480f, -0.777169f, -0.388595f, 0.569385f, 1.000523f, -0.541423f, 0.626407f, 0.419672f, 0.515451f, -0.851866f, -0.782346f, -0.546001f, 1.050377f, 0.988389f, -0.394582f, 0.868544f, 0.825060f, -0.682403f, -0.617503f, -0.483291f},
  {-0.582110f, 0.348538f, 0.652448f, 0.687022f, 0.511718f, -0.351146f, -0.426519f, 0.376142f, 0.604477f, -0.638758f, -0.591440f, 0.789080f, -0.392800f, 0.364841f, 0.091981f, -0.296564f, -0.383229f, -0.055924f, -0.724467f, -0.034282f, -0.661172f, 0.646430f, 0.489546f, 0.304639f, -0.537745f, -0.635943f, -0.520211f, -0.716034f, 0.407485f, 0.011728f, 0.418176f, 0.759216f},
  {-0.786761f, 0.512711f, 0.811824f, 0.677915f, 0.799026f, -0.237005f, -1.000385f, 0.613095f, 0.613371f, -0.581097f, -0.738954f, 0.853696f, -0.407134f, 0.744528f, 0.104978f, -0.372355f, -0.851269f, 0.198727f, -0.746922f, -0.006399f, -0.664138f, 0.790607f, 0.472165f, 0.968036f, -0.569579f, -0.535127f, -1.264170f, -0.806107f, 0.380312f, 0.227874f, 0.484258f, 0.713877f},
  {-0.660730f, -0.392222f, 0.611234f, 0.254355f, 0.439281f, 0.212253f, -1.042488f, 0.221948f, 0.173777f, -0.159769f, -0.053049f, 0.484130f, 0.502989f, 0.781498f, -0.784433f, 0.468357f, -1.053705f, 0.911381f, -0.351883f, -0.516827f, 0.099104f, 0.304716f, 0.096417f, 1.211345f, -0.289273f, -0.026269f, -1.173378f, -0.373030f, -0.416045f, -0.691177f, -0.535279f, 0.102538f},
  {-0.512280f, -0.287376f, 0.513938f, 0.260011f, 0.607688f, 0.138631f, -0.882037f, 0.479705f, 0.345144f, -0.187504f, -0.136602f, 0.515494f, 0.473237f, 0.720859f, -0.712070f, 0.489863f, -0.828228f, 0.698880f, -0.355758f, -0.451813f, 0.086216f, 0.370006f, 0.058833f, 0.926620f, -0.244182f, -0.090150f, -1.141866f, -0.391692f, -0.366622f, -0.691474f, -0.490353f, 0.133250f},
  {0.578616f, -0.782834f, -0.909574f, 0.253172f, -0.893225f, 0.364204f, 0.837271f, 0.717389f, -1.138942f, 0.980852f, 0.794071f, -0.813394f, 0.763749f, -0.863445f, 1.233947f, -0.923836f, -0.420588f, 0.350171f, 0.555206f, -0.553719f, 1.030909f, -0.790230f, 0.451174f, -1.019105f, -0.678232f, -0.572750f, 1.295287f, 0.896875f, -1.017050f, 1.167061f, 0.476327f, -1.246089f},
  {0.767556f, 0.493062f, -0.582549f, -0.852600f, -0.354453f, 0.266722f, 0.511311f, -0.831443f, 1.008249f, 0.146076f, 0.669714f, -0.463569f, 0.206321f, -0.468925f, -0.664561f, 0.881018f, 0.780653f, -0.575410f, 0.488666f, 0.073015f, 0.435621f, -0.634031f, -0.854535f, -0.047438f, 1.032051f, 0.987976f, -0.914925f, 0.581150f, 0.764937f, -0.979324f, -0.775936f, -0.242454f},
  {0.177430f, -0.843886f, -0.498265f, 0.486926f, -0.803700f, 0.311661f, 0.578191f, 0.671219f, -1.039216f, 0.890363f, 0.620666f, -0.569881f, 0.802025f, -0.641762f, 1.126087f, -0.808773f, -0.785085f, 0.809928f, 0.526766f, -0.719318f, 0.967790f, -0.560036f, 0.605029f, -0.835339f, -0.743122f, -0.639344f, 1.184600f, 0.630777f, -1.026694f, 0.978493f, 0.383235f, -1.007919f},
  {0.409437f, -1.056358f, -0.618394f, 0.053255f, -0.707942f, 0.558398f, 0.522357f, 0.569408f, -1.049403f, 0.828156f, 0.750973f, -0.682237f, 1.051759f, -0.565484f, 0.525732f, -0.248986f, -0.345426f, 0.600189f, 0.687111f, -0.971388f, 1.018203f, -0.622206f, 0.036572f, -0.704532f, -0.447508f, -0.273767f, 1.009662f, 0.682821f, -1.178163f, 0.789451f, -0.274026f, -0.934052f},
  {1.523720f, 1.212703f, -1.476434f, -1.484178f, -0.973335f, 1.009841f, 1.274930f, -1.429383f, 1.434373f, 0.842217f, 1.433897f, -1.322401f, 0.234102f, -1.245740f, -1.095339f, 1.368393f, 1.538914f, -1.612106f, 1.249537f, 0.907181f, 1.286996f, -1.501002f, -1.388506f, -1.137058f, 1.738140f, 1.639713f, -0.732846f, 1.446242f, 1.581861f, -1.399384f, -1.425828f, -1.325085f},
  {0.499287f, -0.640314f, -0.674877f, 0.000408f, -0.756880f, 0.288928f, 0.572664f, 0.254419f, -0.784669f, 0.753324f, 0.532353f, -0.626179f, 0.654886f, -0.609635f, 0.785869f, -0.388607f, -0.152910f, 0.234555f, 0.564871f, -0.596579f, 0.784053f, -0.620467f, 0.006933f, -0.664098f, -0.109286f, -0.068241f, 0.897225f, 0.636181f, -0.687423f, 0.747192f, 0.024658f, -0.736427f},
  {1.258686f, 0.896388f, -1.152753f, -1.197196f, -0.740341f, 0.545827f, 0.921362f, -1.086233f, 1.101758f, 0.659263f, 1.146992f, -0.979798f, 0.148065f, -0.900118f, -0.722113f, 1.061270f, 1.116112f, -1.190919f, 0.926186f, 0.344303f, 0.949538f, -1.080766f, -1.070540f, -0.914308f, 1.312575f, 1.235278f, -0.637582f, 1.178805f, 1.278625f, -1.152164f, -1.071851f, -0.912607f},
  {-0.745384f, 0.675745f, 0.875610f, 0.786159f, 0.768870f, -0.634041f, -0.534802f, 0.487939f, 1.076406f, -0.805691f, -0.977185f, 0.898524f, -0.658968f, 0.503082f, 0.313518f, -0.653305f, -0.399146f, -0.148191f, -0.835702f, 0.363803f, -0.860342f, 0.887682f, 0.769238f, 0.383708f, -0.732271f, -0.947488f, -0.613780f, -0.838374f, 0.624363f, 0.312940f, 0.610052f, 0.956377f},
  {0.700778f, -0.923600f, -0.958466f, -0.066468f, -0.946057f, 0.552007f, 0.759859f, 0.391183f, -1.092419f, 0.949234f, 0.862287f, -0.870311f, 1.001479f, -0.832119f, 1.054180f, -0.487872f, -0.104044f, 0.497742f, 0.758722f, -0.778433f, 1.073109f, -0.894520f, 0.093487f, -0.931010f, -0.265204f, -0.079659f, 1.190154f, 0.889575f, -1.046201f, 0.973542f, -0.134290f, -1.227856f},
  {0.928765f, -1.028312f, -1.132997f, -0.350962f, -1.163357f, 0.764019f, 1.102072f, 0.460544f, -1.308560f, 1.123740f, 1.010943f, -1.056371f, 1.135955f, -1.022957f, 1.473298f, -0.868953f, 0.052483f, 0.552298f, 0.956988f, -0.957198f, 1.243468f, -1.144228f, -0.132994f, -1.207741f, -0.040859f, -0.008593f, 1.395030f, 1.175988f, -1.187918f, 1.234827f, -0.007410f, -1.268222f},
  {1.099100f, 0.729660f, -1.015906f, -0.991398f, -0.636095f, 0.488091f, 0.882009f, -0.994447f, 0.947235f, 0.596249f, 0.892874f, -0.779475f, 0.054930f, -0.893686f, -0.703588f, 1.019130f, 1.049291f, -1.074641f, 0.792849f, 0.343528f, 0.717608f, -1.037375f, -0.955552f, -0.719165f, 1.213958f, 1.107459f, -0.449139f, 1.009011f, 1.199225f, -0.966709f, -0.897420f, -0.737845f},
  {-0.645446f, -0.169493f, 0.678190f, 0.357014f, 0.478213f, -0.013895f, -1.116157f, 0.453731f, 0.299083f, -0.314375f, -0.304252f, 0.520998f, 0.275196f, 0.768548f, -0.608901f, 0.267011f, -0.998783f, 0.680672f, -0.471841f, -0.362371f, -0.141349f, 0.401992f, 0.166833f, 1.045858f, -0.398093f, -0.191926f, -1.175638f, -0.572305f, -0.231967f, -0.485074f, -0.203334f, 0.326634f},
  {0.875726f, -1.060837f, -1.039117f, -0.080785f, -1.003277f, 0.730166f, 0.984082f, 0.605747f, -1.248085f, 1.115566f, 1.008633f, -1.060765f, 1.093693f, -0.949764f, 1.277238f, -0.822116f, -0.393462f, 0.859365f, 0.939138f, -0.831505f, 1.226502f, -1.064496f, 0.248424f, -1.078039f, -0.514105f, -0.264017f, 1.307840f, 1.114620f, -1.154007f, 1.109878f, -0.161513f, -1.303755f},
  {-0.771688f, -0.221372f, 0.793340f, 0.501193f, 0.691023f, -0.022757f, -1.037629f, 0.386796f, 0.777452f, -0.388875f, -0.296752f, 0.823526f, 0.323639f, 0.880727f, -0.746916f, 0.420702f, -0.739223f, 0.819309f, -0.486518f, -0.335775f, -0.049873f, 0.586434f, 0.295450f, 1.096902f, -0.513814f, -0.318162f, -1.204259f, -0.734500f, -0.230450f, -0.648435f, -0.349662f, 0.540061f},
  {1.006939f, 0.758233f, -0.890244f, -1.027470f, -0.644884f, 0.578546f, 0.799396f, -0.876474f, 0.986423f, 0.497083f, 0.898067f, -0.897881f, 0.207658f, -0.815923f, -0.742344f, 1.010488f, 1.048401f, -0.945124f, 0.850819f, 0.229432f, 0.849493f, -1.008580f, -0.961106f, -0.607222f, 1.183542f, 1.087948f, -0.711033f, 0.988337f, 1.130288f, -0.967261f, -1.006358f, -0.746707f},
  {0.295897f, -0.767354f, -0.630349f, 0.276376f, -0.819780f, 0.210595f, 0.642418f, 0.702569f, -1.060225f, 0.908842f, 0.543898f, -0.615044f, 0.780648f, -0.693120f, 1.202564f, -0.744538f, -0.643585f, 0.528195f, 0.498351f, -0.653228f, 0.971675f, -0.617516f, 0.456069f, -0.815325f, -0.618796f, -0.567037f, 1.146578f, 0.634471f, -0.964525f, 1.022263f, 0.466156f, -0.996563f},
  {0.469404f, -0.895644f, -0.808401f, 0.183237f, -0.831313f, 0.418832f, 0.643470f, 0.441136f, -1.085397f, 0.844572f, 0.726051f, -0.765060f, 0.881116f, -0.734485f, 1.088786f, -0.618283f, -0.343729f, 0.573322f, 0.688520f, -0.729550f, 0.912343f, -0.731468f, 0.152285f, -0.905096f, -0.491137f, -0.336499f, 1.180756f, 0.710451f, -0.921325f, 0.948757f, -0.050673f, -0.922674f},
  {1.109272f, 0.847453f, -0.971438f, -0.998970f, -0.669730f, 0.327724f, 0.852374f, -0.918048f, 0.897306f, 0.422625f, 0.906992f, -0.843801f, 0.064032f, -0.844994f, -0.714982f, 0.970855f, 1.021586f, -1.010101f, 0.772433f, 0.340483f, 0.834142f, -0.980842f, -0.923685f, -0.754216f, 1.190619f, 1.094472f, -0.721562f, 0.997502f, 1.136744f, -0.962665f, -0.978566f, -0.642848f},
  {0.564185f, -0.953370f, -0.873965f, 0.095653f, -1.056990f, 0.487637f, 0.859920f, 0.738752f, -1.181813f, 0.988441f, 0.850975f, -0.878858f, 1.029084f, -0.858273f, 1.296130f, -0.756954f, -0.457112f, 0.677698f, 0.597573f, -0.831510f, 1.098017f, -0.902002f, 0.222447f, -1.041914f, -0.619965f, -0.392990f, 1.301544f, 0.866160f, -1.111144f, 1.191700f, 0.161720f, -1.240877f},
  {0.330774f, -0.893440f, -0.655670f, 0.402747f, -0.861205f, 0.337807f, 0.611350f, 0.762327f, -1.126274f, 0.942923f, 0.596119f, -0.693621f, 0.899001f, -0.627933f, 1.164024f, -0.832755f, -0.595107f, 0.698592f, 0.518105f, -0.759882f, 0.926126f, -0.574326f, 0.519813f, -0.847918f, -0.719716f, -0.576831f, 1.219165f, 0.570934f, -0.951386f, 1.039550f, 0.291147f, -1.045422f},
  {-0.642703f, 0.643941f, 0.579952f, 0.604582f, 0.535472f, -0.372448f, -0.681828f, 0.522897f, 0.394169f, -0.528884f, -0.609820f, 0.621726f, -0.559509f, 0.437537f, 0.521888f, -0.629106f, -0.547003f, -0.138230f, -0.595326f, 0.103480f, -0.664423f, 0.556703f, 0.406820f, 0.580847f, -0.546759f, -0.514865f, -0.635330f, -0.649139f, 0.513601f, 0.459445f, 0.738842f, 0.618431f},
  {-0.769111f, 1.644787f, 0.869159f, 0.898771f, 0.796677f, -0.911233f, -0.427686f, 0.527726f, 1.177395f, -1.045104f, -1.244817f, 0.945765f, -1.720247f, 0.305460f, 1.886595f, -1.598040f, -0.140677f, -1.384051f, -0.903884f, 0.963552f, -1.562881f, 0.962625f, 0.845758f, 0.075944f, -0.656714f, -1.070300f, -0.694248f, -1.043522f, 1.603932f, 1.477606f, 1.854592f, 1.322004f},
  {0.233752f, 1.119280f, -0.024833f, -0.201512f, -0.028196f, -0.432548f, 0.211595f, -0.328518f, 0.798033f, -0.228564f, -0.211011f, 0.105263f, -0.806579f, -0.283949f, 0.759899f, -0.452160f, 0.487160f, -1.103409f, -0.174730f, 0.530611f, -0.724348f, -0.077059f, -0.207463f, -0.243708f, 0.368239f, 0.236090f, -0.590672f, 0.080311f, 1.161865f, 0.049172f, 0.640666f, 0.543538f},
  {0.780229f, -0.675441f, -0.878985f, -0.523117f, -0.397509f, 0.648054f, 0.932132f, 0.083138f, -0.794283f, 0.782888f, 0.852558f, -0.886790f, 0.585986f, -0.463453f, 0.494575f, -0.011672f, 0.414961f, -0.005179f, 0.813416f, 0.261397f, 0.889803f, -0.886302f, -0.092820f, -0.950882f, 0.272789f, 0.375061f, 0.926376f, 0.872200f, -0.601788f, 0.583690f, -0.373385f, -0.980125f},
  {-0.256321f, 0.631042f, 0.348078f, 0.180479f, 0.195558f, -0.330317f, -0.129655f, -0.086276f, 0.717983f, -0.425415f, -0.386198f, 0.441359f, -0.568755f, 0.015465f, 0.289790f, -0.349278f, 0.058779f, -0.466167f, -0.364797f, 0.122094f, -0.616962f, 0.342305f, 0.082425f, 0.207404f, -0.081442f, -0.170754f, -0.624203f, -0.361031f, 0.742777f, -0.023441f, 0.432570f, 0.570473f},
  {-0.497827f, -0.449868f, 0.517802f, 0.298793f, 0.519025f, 0.073852f, -0.911620f, 0.197800f, 0.490032f, -0.261877f, -0.049834f, 0.463781f, 0.615451f, 0.724489f, -1.019309f, 0.661458f, -0.745241f, 0.951531f, -0.268726f, -0.603387f, 0.281436f, 0.324375f, 0.072105f, 1.005144f, -0.297566f, -0.074798f, -0.961404f, -0.364443f, -0.457711f, -0.917469f, -0.696213f, 0.213497f},
  {-0.689312f, 0.159070f, 0.690552f, 0.626195f, 0.708477f, -0.233043f, -0.807848f, 0.576374f, 0.456731f, -0.500733f, -0.600833f, 0.729498f, -0.251770f, 0.667342f, -0.060091f, -0.143498f, -0.793165f, 0.263177f, -0.645569f, 0.002966f, -0.494312f, 0.665923f, 0.442864f, 0.752757f, -0.655477f, -0.614786f, -0.851801f, -0.718129f, 0.170203f, 0.028365f, 0.210414f, 0.575462f},
  {-0.709603f, 1.297517f, 0.847277f, 0.837613f, 0.621967f, -0.833346f, -0.389545f, 0.344666f, 0.872010f, -0.848917f, -1.001761f, 0.795510f, -1.302278f, 0.406450f, 1.577221f, -1.362912f, -0.139704f, -1.060610f, -0.798650f, 0.875965f, -1.230210f, 0.819898f, 0.718162f, 0.211221f, -0.454645f, -0.864240f, -0.654461f, -0.846667f, 1.248766f, 1.093618f, 1.439292f, 0.974190f},
  {0.368868f, -0.076355f, -0.412728f, -0.434236f, -0.251679f, 0.209923f, 0.211704f, -0.470389f, 0.522656f, 0.108929f, 0.450562f, -0.234415f, 0.461048f, -0.178983f, -0.784107f, 0.732828f, 0.376403f, -0.057387f, 0.305866f, -0.180249f, 0.464081f, -0.440621f, -0.396433f, 0.171553f, 0.458743f, 0.539814f, -0.469516f, 0.390012f, 0.154434f, -0.904745f, -0.747441f, -0.155156f},
  {0.118276f, 0.240300f, -0.152651f, -0.296095f, 0.168262f, 0.204836f, 0.132574f, -0.346437f, 0.542636f, -0.135448f, 0.269350f, -0.118650f, -0.028961f, 0.067143f, -0.218902f, 0.371176f, 0.187936f, -0.082764f, 0.095854f, 0.081313f, 0.103609f, -0.108689f, -0.144397f, 0.141895f, 0.507729f, 0.333707f, -0.707257f, 0.137434f, 0.279425f, -0.372985f, -0.341363f, -0.116265f},
  {0.301496f, -0.065020f, -0.222356f, -0.400264f, -0.094171f, 0.289543f, -0.051014f, -0.408040f, 0.290819f, 0.127524f, 0.497856f, -0.185487f, 0.330912f, 0.029265f, -0.660111f, 0.697188f, 0.164592f, 0.264862f, 0.289145f, -0.127576f, 0.345860f, -0.321739f, -0.467858f, 0.472681f, 0.544978f, 0.587927f, -0.610565f, 0.320573f, -0.073008f, -0.794443f, -0.636312f, -0.188363f},
  {-0.725552f, 0.896954f, 0.875898f, 0.760716f, 0.709380f, -0.758331f, -0.467455f, 0.556855f, 0.919526f, -0.795442f, -1.002600f, 0.822331f, -1.006620f, 0.457799f, 0.803167f, -0.904351f, -0.303585f, -0.728078f, -0.753864f, 0.664453f, -1.052469f, 0.889834f, 0.744975f, 0.235491f, -0.614903f, -0.854676f, -0.469836f, -0.907365f, 0.983953f, 0.772765f, 0.976631f, 1.100314f},
  {0.259592f, 0.028252f, -0.228012f, -0.215213f, -0.198030f, -0.006200f, 0.325479f, -0.265524f, -0.019964f, 0.146963f, 0.250501f, -0.232528f, -0.008723f, -0.214937f, 0.070502f, 0.089055f, 0.335302f, -0.161889f, 0.164183f, 0.189236f, 0.111700f, -0.242377f, -0.160483f, -0.383250f, 0.193297f, 0.171297f, 0.180521f, 0.259040f, 0.168311f, -0.006531f, 0.003058f, -0.179188f},
  {0.073725f, -0.696448f, -0.391682f, 0.363884f, -0.608305f, 0.202504f, 0.132491f, 0.621985f, -0.857602f, 0.656793f, 0.404780f, -0.355459f, 0.766241f, -0.193293f, 0.321617f, -0.216386f, -0.639685f, 0.722175f, 0.313995f, -0.722211f, 0.803070f, -0.320684f, 0.352436f, -0.414406f, -0.595489f, -0.510396f, 0.822390f, 0.330447f, -0.831617f, 0.415691f, -0.185107f, -0.792738f},
  {0.801380f, -0.848720f, -0.933010f, -0.401951f, -0.956933f, 0.650753f, 0.832804f, 0.306096f, -1.168877f, 0.905215f, 0.933242f, -0.850822f, 0.913181f, -0.907300f, 1.234021f, -0.489931f, 0.070613f, 0.347520f, 0.755610f, -0.740697f, 1.078271f, -0.875124f, -0.241721f, -1.028623f, -0.099439f, 0.140992f, 1.157096f, 0.951824f, -1.030467f, 1.049983f, -0.203511f, -1.137000f},
  {-0.646938f, 0.388266f, 0.683198f, 0.573551f, 0.650714f, -0.167353f, -0.669932f, 0.276623f, 0.528508f, -0.513782f, -0.629403f, 0.690586f, -0.434457f, 0.446192f, 0.350017f, -0.434258f, -0.463574f, -0.144755f, -0.612151f, -0.050885f, -0.629462f, 0.596185f, 0.291942f, 0.587731f, -0.340870f, -0.437185f, -0.913682f, -0.732954f, 0.337850f, 0.300183f, 0.517349f, 0.577989f},
  {0.370077f, -0.850825f, -0.686580f, 0.086760f, -0.881112f, 0.463260f, 0.589991f, 0.514513f, -1.047024f, 0.880606f, 0.754621f, -0.699694f, 0.820120f, -0.661546f, 0.813808f, -0.519192f, -0.328796f, 0.614120f, 0.647881f, -0.776296f, 0.894398f, -0.658443f, 0.279143f, -0.752069f, -0.452697f, -0.202891f, 1.034976f, 0.677254f, -0.954477f, 0.812549f, -0.039494f, -0.921321f},
  {-0.593422f, 0.721446f, 0.566782f, 0.617727f, 0.389020f, -0.512903f, -0.313679f, 0.394110f, 0.533152f, -0.604010f, -0.823635f, 0.569831f, -0.762072f, 0.095457f, 0.939680f, -0.854961f, -0.124781f, -0.619720f, -0.659722f, 0.266471f, -0.967504f, 0.607189f, 0.470565f, 0.035692f, -0.408853f, -0.581269f, -0.304604f, -0.674173f, 0.800974f, 0.768788f, 0.871447f, 0.788926f},
  {-0.204925f, -0.480164f, 0.002633f, 0.144625f, 0.009778f, 0.179580f, -0.464696f, 0.233226f, -0.355675f, 0.176254f, 0.112912f, 0.112868f, 0.372431f, 0.356369f, -0.291960f, 0.303892f, -0.618561f, 0.567288f, -0.056478f, -0.515116f, 0.342238f, -0.054896f, 0.080589f, 0.487649f, -0.209422f, -0.003650f, -0.137994f, -0.023053f, -0.528228f, -0.292756f, -0.373495f, -0.345888f},
  {-0.652730f, 0.865426f, 0.685883f, 0.771015f, 0.620548f, -0.647894f, -0.281689f, 0.503710f, 0.811870f, -0.760600f, -0.847116f, 0.757468f, -0.799607f, 0.306710f, 0.652128f, -0.771228f, -0.152429f, -0.419344f, -0.726816f, 0.169921f, -0.886113f, 0.727071f, 0.657400f, 0.099260f, -0.586327f, -0.804901f, -0.255829f, -0.769223f, 0.806228f, 0.524686f, 0.746586f, 0.930408f},
  {1.016081f, 0.786766f, -0.897673f, -0.975392f, -0.654978f, 0.475537f, 0.779359f, -0.821232f, 0.870534f, 0.473415f, 0.801377f, -0.843786f, 0.107088f, -0.805838f, -0.547826f, 0.816669f, 0.997723f, -0.955737f, 0.754807f, 0.382990f, 0.669405f, -0.940338f, -0.879451f, -0.670316f, 1.152160f, 0.992177f, -0.584738f, 0.980290f, 1.084759f, -0.862016f, -0.814672f, -0.610460f},
  {-0.271997f, 0.420548f, 0.139697f, 0.526230f, 0.041716f, -0.370553f, 0.128518f, 0.466543f, -0.288456f, -0.034375f, -0.413558f, 0.018836f, -0.742718f, -0.235087f, 1.331859f, -1.248914f, -0.156800f, -0.724714f, -0.257620f, 0.219819f, -0.445073f, 0.264495f, 0.551740f, -0.618875f, -0.478621f, -0.698806f, 0.388022f, -0.222209f, 0.245583f, 1.193032f, 1.181004f, 0.167360f},
  {1.433266f, 1.042487f, -1.395030f, -1.360247f, -0.918741f, 0.808162f, 1.246105f, -1.291415f, 1.177279f, 0.887425f, 1.307765f, -1.292532f, 0.231392f, -1.244983f, -0.687727f, 1.292773f, 1.433150f, -1.464450f, 1.252760f, 0.769042f, 1.209531f, -1.411284f, -1.290094f, -1.246065f, 1.499668f, 1.483001f, -0.548308f, 1.438677f, 1.474558f, -1.126322f, -1.267170f, -1.263072f},
  {0.294043f, -0.751805f, -0.689035f, 0.115516f, -0.785748f, 0.269925f, 0.574258f, 0.493626f, -1.000897f, 0.889459f, 0.570691f, -0.622514f, 0.736817f, -0.565075f, 0.921781f, -0.522642f, -0.324359f, 0.521129f, 0.492127f, -0.701345f, 0.919185f, -0.599505f, 0.251195f, -0.654436f, -0.488250f, -0.334981f, 1.046253f, 0.547184f, -0.943206f, 0.891690f, 0.282896f, -0.857808f},
  {0.688257f, -0.240072f, -0.798527f, -0.464608f, -0.762051f, 0.288218f, 0.780328f, -0.191626f, -0.543186f, 0.769844f, 0.812341f, -0.777174f, 0.352875f, -0.780226f, 0.676971f, -0.011444f, 0.361796f, -0.355225f, 0.719909f, -0.189765f, 0.805217f, -0.766048f, -0.317600f, -0.907522f, 0.247831f, 0.302520f, 0.833870f, 0.808984f, -0.334802f, 0.351068f, -0.088518f, -0.941525f},
  {-0.114893f, -0.189427f, 0.024506f, 0.269547f, -0.113127f, -0.004876f, -0.174007f, 0.372727f, -0.498285f, 0.165720f, 0.006940f, -0.044681f, 0.118319f, 0.080082f, 0.266749f, -0.247043f, -0.421278f, 0.212421f, -0.092210f, -0.294204f, 0.129376f, 0.022607f, 0.199250f, -0.129348f, -0.350664f, -0.366809f, 0.301949f, 0.007718f, -0.404028f, 0.383720f, 0.223668f, -0.231629f},
  {0.135041f, -0.735878f, -0.321145f, 0.122977f, -0.459455f, 0.314634f, 0.153899f, 0.494047f, -0.661478f, 0.555476f, 0.379697f, -0.355486f, 0.686830f, -0.197588f, 0.505602f, -0.224615f, -0.519113f, 0.460656f, 0.270746f, -0.553233f, 0.673142f, -0.354238f, 0.067042f, -0.401768f, -0.421639f, -0.202412f, 0.671803f, 0.313619f, -0.827041f, 0.585442f, -0.129664f, -0.601378f},
  {0.547975f, -0.782978f, -0.752669f, -0.016399f, -0.742029f, 0.324087f, 0.620865f, 0.493996f, -0.962534f, 0.775954f, 0.644218f, -0.720244f, 0.858402f, -0.657134f, 0.969824f, -0.488779f, -0.157342f, 0.273145f, 0.550922f, -0.748947f, 0.917692f, -0.667358f, 0.043197f, -0.830446f, -0.191595f, -0.158333f, 1.024251f, 0.772675f, -0.878851f, 0.894274f, 0.077773f, -0.964335f},
  {-0.609005f, 0.447346f, 0.702031f, 0.626346f, 0.580602f, -0.282824f, -0.505168f, 0.331085f, 0.578935f, -0.673262f, -0.683390f, 0.625828f, -0.419926f, 0.295371f, 0.145604f, -0.389682f, -0.346108f, -0.070635f, -0.639135f, 0.193487f, -0.634329f, 0.666428f, 0.372418f, 0.367684f, -0.444738f, -0.594952f, -0.628406f, -0.681221f, 0.450592f, 0.184656f, 0.407287f, 0.806915f},
  {-0.109697f, 0.074716f, 0.110950f, -0.079734f, 0.297183f, -0.134776f, -0.284697f, -0.159388f, 0.747927f, -0.291348f, 0.027899f, 0.212733f, 0.109296f, 0.262310f, -0.429942f, 0.311573f, -0.053569f, 0.177741f, -0.075384f, 0.074877f, 0.014865f, 0.102889f, -0.050662f, 0.423599f, 0.090831f, 0.154516f, -0.829402f, -0.133785f, 0.282225f, -0.524350f, -0.299617f, 0.284203f},
  {1.168783f, 0.723137f, -1.021953f, -1.131596f, -0.703247f, 0.487687f, 0.941308f, -0.984084f, 0.892488f, 0.636924f, 1.101686f, -1.011037f, 0.351950f, -0.847509f, -0.804584f, 1.106811f, 1.093711f, -0.998924f, 0.986120f, 0.443116f, 0.879765f, -1.063695f, -0.965096f, -0.961753f, 1.222104f, 1.212672f, -0.608243f, 1.169685f, 1.074631f, -1.070296f, -1.075415f, -0.879132f},
  {1.005682f, -0.036090f, -1.008471f, -0.883574f, -0.922180f, 0.624643f, 0.934724f, -0.733403f, -0.154341f, 0.719707f, 1.027922f, -0.925783f, 0.576736f, -0.902751f, 0.036783f, 0.716978f, 0.801207f, -0.792306f, 0.865082f, 0.188528f, 0.937750f, -1.079830f, -0.795744f, -0.882956f, 0.888642f, 0.940170f, 0.386339f, 1.034709f, 0.151343f, -0.382188f, -0.901208f, -0.977552f},
  {0.871325f, 0.636997f, -0.836849f, -0.842151f, -0.612971f, 0.321754f, 0.752685f, -0.792076f, 0.645604f, 0.358764f, 0.829627f, -0.725549f, 0.074240f, -0.694650f, -0.571176f, 0.849545f, 0.942352f, -0.898349f, 0.716584f, 0.226917f, 0.644200f, -0.896204f, -0.790608f, -0.623424f, 0.950556f, 1.007052f, -0.468269f, 0.840634f, 0.985044f, -0.846732f, -0.737624f, -0.544012f},
  {0.839837f, 0.830182f, -0.787228f, -0.888959f, -0.498218f, 0.333922f, 0.647223f, -0.830637f, 0.941197f, 0.395071f, 0.839042f, -0.718479f, 0.026438f, -0.650877f, -0.933310f, 0.862644f, 0.872797f, -0.920620f, 0.665715f, 0.319190f, 0.624624f, -0.892826f, -0.770407f, -0.514691f, 1.017954f, 0.978041f, -0.811306f, 0.811808f, 1.013265f, -0.916786f, -0.920756f, -0.550021f},
  {0.820859f, -1.072776f, -0.980435f, -0.098455f, -1.061127f, 0.570806f, 1.030650f, 0.742806f, -1.336289f, 1.082709f, 0.920823f, -1.005959f, 1.079368f, -1.034464f, 1.274485f, -0.938677f, -0.084529f, 0.540196f, 0.837639f, -0.883178f, 1.194919f, -0.998227f, 0.176965f, -1.179885f, -0.445836f, -0.286445f, 1.448743f, 1.053790f, -1.215739f, 1.385686f, 0.242939f, -1.178361f},
  {0.239062f, -0.620497f, -0.471554f, 0.227016f, -0.686447f, 0.179298f, 0.501972f, 0.494803f, -0.773514f, 0.725500f, 0.419274f, -0.484794f, 0.606118f, -0.525177f, 0.747646f, -0.461155f, -0.377040f, 0.390171f, 0.481081f, -0.589256f, 0.755738f, -0.426004f, 0.270674f, -0.575050f, -0.379664f, -0.407085f, 0.826130f, 0.443342f, -0.756694f, 0.747117f, 0.333948f, -0.699739f},
  {0.145618f, -0.670458f, -0.507724f, 0.319226f, -0.564991f, 0.231831f, 0.435626f, 0.510046f, -0.785895f, 0.668891f, 0.403117f, -0.431841f, 0.626550f, -0.400154f, 0.625342f, -0.462264f, -0.483474f, 0.477783f, 0.363266f, -0.384501f, 0.737884f, -0.398933f, 0.313496f, -0.535141f, -0.487426f, -0.415817f, 0.886056f, 0.429429f, -0.766690f, 0.700826f, 0.170110f, -0.764785f},
  {0.528512f, -0.039105f, -0.586094f, -0.430186f, -0.472483f, 0.258673f, 0.493724f, -0.375047f, -0.205487f, 0.490969f, 0.525423f, -0.437146f, 0.155746f, -0.567414f, 0.095640f, 0.290215f, 0.409974f, -0.316847f, 0.430696f, -0.204415f, 0.554868f, -0.582850f, -0.319799f, -0.438112f, 0.397471f, 0.406401f, 0.344602f, 0.570826f, -0.055963f, -0.149972f, -0.317996f, -0.504495f},
  {1.182327f, 0.861698f, -1.093926f, -1.113771f, -0.954703f, 0.731829f, 1.074373f, -1.055481f, 0.860374f, 0.807406f, 1.115601f, -1.072842f, 0.299419f, -1.020754f, -0.423439f, 1.058800f, 1.166240f, -1.141013f, 1.003183f, 0.465719f, 0.990432f, -1.180319f, -1.076536f, -0.918755f, 1.299732f, 1.188571f, -0.336074f, 1.232819f, 1.232117f, -0.934162f, -1.128740f, -0.937679f},
  {0.339578f, -0.920538f, -0.730496f, 0.247283f, -0.842841f, 0.291345f, 0.667291f, 0.710429f, -1.096710f, 0.943694f, 0.700003f, -0.693432f, 0.877970f, -0.632546f, 1.192767f, -0.789169f, -0.517583f, 0.772058f, 0.505725f, -0.776165f, 0.949214f, -0.668357f, 0.453056f, -0.923475f, -0.672285f, -0.470932f, 1.264435f, 0.714456f, -1.030207f, 1.132305f, 0.292797f, -1.057827f},
  {0.365884f, -0.731073f, -0.583415f, 0.078347f, -0.784564f, 0.268587f, 0.651641f, 0.484045f, -0.976272f, 0.782730f, 0.512598f, -0.582524f, 0.727431f, -0.632338f, 0.974425f, -0.545038f, -0.189855f, 0.292263f, 0.547509f, -0.572442f, 0.887257f, -0.590411f, 0.176202f, -0.871150f, -0.341774f, -0.306556f, 1.068360f, 0.530939f, -0.896858f, 0.881603f, 0.289784f, -0.904803f},
  {0.630944f, -0.552767f, -0.650531f, -0.174730f, -0.683677f, 0.416519f, 0.704901f, 0.174971f, -0.820837f, 0.676533f, 0.634246f, -0.699908f, 0.599681f, -0.600823f, 0.930354f, -0.331219f, 0.101486f, 0.140860f, 0.576744f, -0.483984f, 0.715207f, -0.689565f, -0.095990f, -0.659424f, 0.015338f, 0.112345f, 0.858443f, 0.690524f, -0.632059f, 0.727944f, -0.026313f, -0.780372f},
  {0.478418f, -1.036995f, -0.863344f, 0.192650f, -1.035038f, 0.553537f, 0.849565f, 0.722174f, -1.224482f, 1.056943f, 0.837950f, -0.860834f, 0.948301f, -0.928255f, 1.351060f, -0.813594f, -0.505385f, 0.695414f, 0.724480f, -0.878762f, 1.114396f, -0.805928f, 0.500441f, -1.066750f, -0.636212f, -0.630001f, 1.361024f, 0.868130f, -1.168911f, 1.230294f, 0.357457f, -1.175002f},
  {-1.018449f, 1.625056f, 1.017155f, 1.002564f, 1.002158f, -1.023136f, -0.606913f, 0.808308f, 1.188116f, -1.147572f, -1.297533f, 1.081981f, -1.681966f, 0.696153f, 1.882997f, -1.722112f, -0.495064f, -1.129258f, -0.985714f, 1.108964f, -1.539904f, 1.103028f, 0.936842f, 0.415793f, -0.958306f, -1.185165f, -0.776530f, -1.086622f, 1.705742f, 1.571009f, 1.838697f, 1.328786f},
  {0.128140f, -0.253142f, -0.181228f, 0.316400f, -0.414650f, -0.062747f, 0.249434f, 0.456015f, -0.583999f, 0.350862f, 0.089574f, -0.285367f, -0.006966f, -0.270388f, 0.819652f, -0.654295f, -0.369279f, 0.038587f, 0.193849f, -0.317389f, 0.236903f, -0.216933f, 0.265252f, -0.581704f, -0.401812f, -0.491357f, 0.726864f, 0.141192f, -0.466192f, 0.747495f, 0.414407f, -0.350116f},
  {0.568614f, -0.850533f, -0.771362f, 0.092878f, -0.892721f, 0.594061f, 0.811433f, 0.559056f, -1.094102f, 0.957855f, 0.826265f, -0.877416f, 0.926349f, -0.871006f, 1.144017f, -0.747042f, -0.486438f, 0.606159f, 0.740295f, -0.795708f, 1.053267f, -0.806996f, 0.275312f, -0.979949f, -0.474441f, -0.420135f, 1.170063f, 0.869438f, -0.914711f, 1.097411f, 0.130172f, -1.172745f},
  {-0.611530f, 0.154919f, 0.645892f, 0.516638f, 0.527006f, -0.307431f, -0.580608f, 0.412846f, 0.667360f, -0.485207f, -0.537773f, 0.628464f, -0.074247f, 0.584896f, -0.139024f, -0.043189f, -0.510959f, 0.233894f, -0.446240f, -0.010277f, -0.350233f, 0.667347f, 0.378015f, 0.653858f, -0.437822f, -0.420723f, -0.737703f, -0.632407f, 0.211728f, -0.158602f, 0.086807f, 0.538449f},
  {-0.523101f, 0.011669f, 0.624436f, 0.433383f, 0.542950f, -0.139133f, -0.566960f, 0.325225f, 0.504308f, -0.452085f, -0.339391f, 0.576917f, 0.053483f, 0.531172f, -0.280351f, 0.123854f, -0.344570f, 0.274697f, -0.511245f, -0.098509f, -0.294643f, 0.500179f, 0.294403f, 0.421091f, -0.177855f, -0.344731f, -0.712172f, -0.551899f, 0.093407f, -0.204597f, -0.012727f, 0.488216f},
  {0.000883f, -0.529065f, -0.257487f, 0.384811f, -0.500821f, 0.133577f, 0.124517f, 0.581562f, -0.786082f, 0.481981f, 0.191322f, -0.271882f, 0.408167f, -0.264603f, 0.826767f, -0.614289f, -0.436002f, 0.450396f, 0.167005f, -0.432654f, 0.470289f, -0.210423f, 0.415367f, -0.545499f, -0.607306f, -0.526457f, 0.756279f, 0.184761f, -0.684194f, 0.798677f, 0.299391f, -0.611774f},
  {-0.776197f, 1.224019f, 0.729015f, 0.879447f, 0.688551f, -0.935125f, -0.358418f, 0.601852f, 0.933661f, -1.048144f, -1.119843f, 0.815274f, -1.277818f, 0.319584f, 1.251594f, -1.280759f, -0.216580f, -0.734296f, -0.831427f, 0.966049f, -1.323209f, 0.971921f, 0.877480f, -0.144434f, -0.729246f, -1.056526f, -0.065662f, -0.900164f, 1.288821f, 1.100979f, 1.454357f, 1.064351f},
  {1.062771f, 0.690756f, -1.018732f, -1.104471f, -0.674982f, 0.460472f, 0.882512f, -0.903490f, 0.970865f, 0.521974f, 1.023046f, -0.898068f, -0.019911f, -0.803491f, -0.553889f, 0.963384f, 1.050326f, -1.035306f, 0.820137f, 0.426443f, 0.873728f, -1.072816f, -0.947290f, -0.774132f, 1.197087f, 1.136525f, -0.590227f, 1.012944f, 1.123085f, -0.907719f, -0.971249f, -0.704586f},
  {0.574872f, -1.023279f, -0.881196f, 0.085690f, -1.025698f, 0.599706f, 0.820345f, 0.657854f, -1.179516f, 1.003085f, 0.836748f, -0.915395f, 0.938543f, -0.895235f, 1.287925f, -0.808352f, -0.379489f, 0.581611f, 0.743444f, -0.864914f, 1.044967f, -0.839546f, 0.348623f, -1.097294f, -0.549684f, -0.447943f, 1.248331f, 0.911439f, -1.130742f, 1.205168f, 0.275631f, -1.121464f},
  {0.244808f, -0.719299f, -0.626666f, 0.384887f, -0.687138f, 0.299076f, 0.571837f, 0.588254f, -0.876339f, 0.803960f, 0.565837f, -0.552806f, 0.689400f, -0.601180f, 1.014237f, -0.902130f, -0.511774f, 0.539206f, 0.499623f, -0.653185f, 0.792430f, -0.505209f, 0.446414f, -0.791505f, -0.701636f, -0.500679f, 1.034759f, 0.594309f, -0.819344f, 0.916007f, 0.315863f, -0.835733f},
  {-0.852104f, 0.850672f, 0.815944f, 0.777229f, 0.661559f, -0.605299f, -0.648821f, 0.591852f, 0.821347f, -0.722672f, -0.880097f, 0.726721f, -0.891287f, 0.496361f, 0.687805f, -0.771952f, -0.495890f, -0.428700f, -0.686973f, 0.374298f, -0.920079f, 0.788438f, 0.623501f, 0.513340f, -0.688783f, -0.799132f, -0.728858f, -0.843854f, 0.895182f, 0.660382f, 0.926036f, 0.910636f},
  {-0.602617f, -0.674296f, 0.642544f, 0.433390f, 0.575912f, 0.210435f, -0.754311f, 0.476897f, 0.158368f, -0.228596f, 0.093598f, 0.640513f, 0.818684f, 0.682601f, -0.941907f, 0.684716f, -0.758061f, 0.862361f, -0.387375f, -0.505325f, 0.415940f, 0.397518f, 0.240920f, 0.911129f, -0.649471f, -0.257743f, -0.872196f, -0.483751f, -0.647838f, -0.808994f, -0.747330f, 0.212785f},
  {-0.203218f, 1.133737f, 0.393115f, 0.226186f, 0.307430f, -0.508949f, -0.068418f, 0.060759f, 0.908358f, -0.552290f, -0.575404f, 0.414790f, -0.998763f, 0.053892f, 0.974812f, -0.768896f, 0.112793f, -1.062962f, -0.489255f, 0.494836f, -0.881915f, 0.370301f, 0.240506f, 0.020303f, -0.062384f, -0.283172f, -0.521415f, -0.403627f, 1.244841f, 0.510482f, 0.975143f, 0.712687f},
  {0.760384f, -0.449694f, -0.839544f, -0.449610f, -0.793996f, 0.536208f, 0.767032f, -0.267286f, -0.497266f, 0.737157f, 0.838976f, -0.808166f, 0.657112f, -0.870400f, 0.255736f, 0.240236f, 0.432577f, -0.220618f, 0.755013f, -0.256676f, 0.986936f, -0.926969f, -0.399566f, -0.848215f, 0.347627f, 0.468285f, 0.655537f, 0.883888f, -0.402641f, 0.201197f, -0.578279f, -0.899110f},
  {-0.692876f, 0.076646f, 0.645404f, 0.667450f, 0.606874f, -0.187706f, -0.674313f, 0.556453f, 0.410119f, -0.592014f, -0.486475f, 0.687066f, -0.072461f, 0.582292f, -0.217374f, -0.017412f, -0.664413f, 0.369166f, -0.550640f, -0.063869f, -0.377346f, 0.691512f, 0.429284f, 0.586555f, -0.595384f, -0.534030f, -0.636324f, -0.605397f, 0.037453f, -0.036644f, 0.063824f, 0.557461f},
  {-0.955789f, 1.125703f, 0.979152f, 0.967921f, 0.950825f, -0.879960f, -0.709480f, 0.656442f, 1.140401f, -1.080870f, -1.176854f, 1.016203f, -1.183733f, 0.685611f, 0.914752f, -1.153638f, -0.421615f, -0.652076f, -0.971536f, 0.867766f, -1.214791f, 1.097276f, 0.945948f, 0.417761f, -0.912264f, -0.997731f, -0.894169f, -1.057014f, 1.114473f, 0.961784f, 1.213007f, 1.248045f},
  {-0.697175f, 0.643120f, 0.772560f, 0.751661f, 0.630601f, -0.631747f, -0.578811f, 0.486873f, 0.752220f, -0.660433f, -0.927979f, 0.787309f, -0.693369f, 0.453003f, 0.458652f, -0.650645f, -0.402113f, -0.370096f, -0.800817f, 0.218378f, -0.986721f, 0.810544f, 0.596674f, 0.339715f, -0.485704f, -0.745538f, -0.712929f, -0.844230f, 0.764507f, 0.523984f, 0.694823f, 0.897620f},
  {0.308877f, -0.105842f, -0.341021f, -0.548997f, -0.314346f, 0.209594f, 0.132395f, -0.421752f, 0.119074f, 0.457070f, 0.657897f, -0.299144f, 0.505672f, -0.215566f, -0.662292f, 0.733190f, 0.169463f, 0.172807f, 0.400600f, -0.654266f, 0.580707f, -0.426072f, -0.530433f, 0.275103f, 0.470684f, 0.633699f, -0.631430f, 0.417996f, 0.040365f, -0.899229f, -0.696909f, -0.291699f},
  {0.236457f, 0.343379f, -0.146609f, -0.380581f, -0.012837f, 0.064974f, 0.131636f, -0.362601f, 0.762382f, 0.022019f, 0.317608f, -0.138652f, -0.032934f, -0.040844f, -0.410507f, 0.441697f, 0.325733f, -0.368863f, 0.128005f, 0.085214f, 0.116827f, -0.125626f, -0.320314f, 0.067986f, 0.520148f, 0.394919f, -0.774898f, 0.206377f, 0.544196f, -0.643825f, -0.402401f, 0.010029f},
  {-0.647006f, 1.359700f, 0.694785f, 0.727355f, 0.620796f, -0.760294f, -0.221933f, 0.488020f, 0.957302f, -0.895699f, -1.086778f, 0.737412f, -1.528898f, 0.260647f, 1.664098f, -1.493905f, -0.067214f, -1.274164f, -0.749027f, 0.997255f, -1.309199f, 0.776191f, 0.646719f, -0.145364f, -0.578934f, -0.878440f, -0.295409f, -0.769956f, 1.442580f, 1.304488f, 1.493403f, 1.141049f},
  {-0.608597f, 0.221731f, 0.617119f, 0.574988f, 0.442189f, -0.303053f, -0.573223f, 0.368511f, 0.505907f, -0.540945f, -0.564928f, 0.618643f, -0.117329f, 0.566306f, -0.093653f, -0.315626f, -0.521158f, 0.289013f, -0.549550f, -0.116671f, -0.426696f, 0.532740f, 0.485959f, 0.602982f, -0.504205f, -0.520325f, -0.745280f, -0.562530f, 0.194669f, -0.042975f, 0.218965f, 0.518370f},
  {-0.567422f, 0.709171f, 0.571437f, 0.733365f, 0.593578f, -0.495153f, -0.368150f, 0.282740f, 0.619406f, -0.620161f, -0.782691f, 0.667621f, -0.675834f, 0.254893f, 0.664017f, -0.722813f, -0.228087f, -0.705217f, -0.697686f, 0.335460f, -0.876758f, 0.611412f, 0.530954f, 0.082010f, -0.371759f, -0.661155f, -0.481431f, -0.654494f, 0.707250f, 0.606268f, 0.724456f, 0.707247f},
  {-0.795230f, 0.835982f, 0.702772f, 0.736779f, 0.672732f, -0.634038f, -0.498573f, 0.525289f, 0.830446f, -0.841075f, -0.835477f, 0.742247f, -0.865076f, 0.342736f, 0.737648f, -0.884619f, -0.341332f, -0.298873f, -0.714986f, 0.393191f, -0.923376f, 0.844169f, 0.625337f, 0.203431f, -0.644002f, -0.858429f, -0.518959f, -0.826448f, 0.984263f, 0.585635f, 0.913255f, 0.870554f},
  {-0.575843f, -0.267887f, 0.587757f, 0.472396f, 0.458198f, 0.118547f, -0.690786f, 0.329467f, 0.429082f, -0.311352f, -0.233334f, 0.591346f, 0.440222f, 0.606537f, -0.759755f, 0.384481f, -0.689335f, 0.761636f, -0.483292f, -0.486373f, -0.034565f, 0.437164f, 0.252927f, 0.877118f, -0.444156f, -0.333948f, -0.858904f, -0.507046f, -0.369583f, -0.667029f, -0.426507f, 0.399288f},
  {-0.163735f, 1.034770f, 0.272070f, 0.125937f, 0.378903f, -0.535815f, -0.028065f, -0.077308f, 1.128036f, -0.483169f, -0.473226f, 0.364583f, -0.886756f, 0.015701f, 0.656154f, -0.638254f, 0.205373f, -0.934262f, -0.346769f, 0.793103f, -0.764064f, 0.296218f, 0.160421f, -0.070500f, 0.017982f, -0.160307f, -0.664417f, -0.335050f, 1.228562f, 0.238121f, 0.595642f, 0.632658f},
  {-0.612549f, 0.126028f, 0.653628f, 0.512664f, 0.505011f, -0.092672f, -0.645657f, 0.554966f, 0.302662f, -0.396162f, -0.368593f, 0.597099f, -0.155669f, 0.494322f, -0.204929f, -0.016713f, -0.596192f, 0.437249f, -0.458537f, -0.307362f, -0.307021f, 0.525375f, 0.297351f, 0.705734f, -0.514239f, -0.477920f, -0.803483f, -0.630670f, 0.044039f, -0.058201f, 0.106930f, 0.367158f},
  {-0.516831f, 0.118403f, 0.581359f, 0.498117f, 0.568149f, -0.125789f, -0.473462f, 0.308014f, 0.524086f, -0.394991f, -0.516036f, 0.506110f, -0.079323f, 0.364647f, -0.140355f, -0.062021f, -0.382774f, 0.302234f, -0.420699f, -0.005076f, -0.341703f, 0.545697f, 0.388536f, 0.457881f, -0.392352f, -0.455211f, -0.590839f, -0.434177f, 0.143365f, -0.082502f, 0.037132f, 0.514870f},
  {-0.242678f, 0.072850f, 0.400638f, 0.228413f, 0.190566f, -0.152060f, -0.454493f, 0.146046f, 0.147797f, -0.187498f, -0.162931f, 0.330978f, 0.063717f, 0.325975f, -0.356897f, 0.214559f, -0.360637f, 0.338520f, -0.272174f, -0.337440f, -0.104641f, 0.221931f, -0.040176f, 0.560749f, -0.027135f, -0.035452f, -0.654246f, -0.264098f, -0.031874f, -0.344714f, -0.129894f, 0.258713f},
  {0.189393f, 0.056457f, -0.025189f, -0.318432f, 0.073919f, -0.009232f, -0.040412f, -0.249156f, 0.417284f, 0.022841f, 0.133406f, -0.052132f, 0.163320f, 0.031900f, -0.441649f, 0.312197f, 0.244535f, 0.065954f, 0.002481f, -0.093234f, 0.146434f, -0.131270f, -0.309076f, 0.343621f, 0.465647f, 0.403591f, -0.601009f, 0.159905f, 0.210411f, -0.450873f, -0.304929f, -0.050947f},
  {-0.868309f, 1.551671f, 0.806785f, 0.865488f, 0.817589f, -0.989632f, -0.425525f, 0.625296f, 1.179872f, -0.998264f, -1.248459f, 0.939737f, -1.473967f, 0.455649f, 1.604373f, -1.528510f, -0.275758f, -1.160908f, -0.856114f, 1.138351f, -1.487033f, 1.035463f, 0.904604f, 0.015428f, -0.723083f, -1.094731f, -0.534076f, -0.995366f, 1.529180f, 1.426929f, 1.611469f, 1.267059f},
  {0.569174f, 0.947098f, -0.434935f, -0.555854f, -0.182344f, -0.092474f, 0.539676f, -0.596250f, 0.993358f, -0.017626f, 0.274524f, -0.411082f, -0.513603f, -0.486051f, 0.139268f, 0.215112f, 0.783598f, -1.152194f, 0.367460f, 0.706718f, -0.174484f, -0.468081f, -0.444655f, -0.656113f, 0.702977f, 0.567680f, -0.455880f, 0.434340f, 1.137108f, -0.251471f, 0.060315f, 0.055463f},
  {-0.699685f, 1.190928f, 0.666970f, 0.714715f, 0.633402f, -0.713536f, -0.331277f, 0.555979f, 0.853825f, -0.863343f, -0.945938f, 0.711632f, -1.189002f, 0.317111f, 1.354456f, -1.241788f, -0.317287f, -0.989472f, -0.754624f, 0.787487f, -1.163151f, 0.765907f, 0.718251f, -0.096015f, -0.628164f, -0.818823f, -0.188625f, -0.720860f, 1.288255f, 1.193640f, 1.389815f, 0.927805f},
  {-0.536298f, 0.782544f, 0.655964f, 0.637866f, 0.678901f, -0.814429f, -0.138657f, 0.197562f, 1.082000f, -0.889216f, -0.893428f, 0.696540f, -0.748176f, 0.286508f, 0.557384f, -0.771210f, 0.073858f, -0.423602f, -0.625025f, 0.561129f, -0.855863f, 0.697595f, 0.657000f, -0.034902f, -0.401961f, -0.749522f, -0.219380f, -0.722511f, 0.926850f, 0.473443f, 0.674104f, 0.969675f},
  {0.685972f, -0.220680f, -0.689907f, -0.628744f, -0.514054f, 0.367078f, 0.517748f, -0.456070f, -0.078539f, 0.469806f, 0.644933f, -0.565978f, 0.548811f, -0.461116f, -0.203982f, 0.587816f, 0.558953f, -0.216667f, 0.543979f, -0.107113f, 0.662063f, -0.634244f, -0.586856f, -0.282179f, 0.646564f, 0.643479f, 0.158113f, 0.708176f, -0.065680f, -0.356230f, -0.619723f, -0.670777f},
  {0.585966f, -0.354915f, -0.682256f, -0.299130f, -0.729382f, 0.285158f, 0.587247f, -0.039174f, -0.645046f, 0.675752f, 0.679033f, -0.631941f, 0.536162f, -0.656697f, 0.552059f, -0.295646f, 0.142383f, 0.002900f, 0.514224f, -0.505084f, 0.642911f, -0.706779f, -0.174128f, -0.672315f, 0.050726f, 0.180112f, 0.721939f, 0.774390f, -0.460820f, 0.350000f, -0.034112f, -0.735817f},
  {0.468602f, -0.814473f, -0.655731f, -0.158566f, -0.660099f, 0.433288f, 0.434547f, 0.548921f, -0.923520f, 0.701161f, 0.783917f, -0.566412f, 0.883603f, -0.439719f, 0.571495f, -0.249903f, -0.343815f, 0.526753f, 0.556454f, -0.675648f, 0.980919f, -0.703227f, -0.002828f, -0.647826f, -0.334391f, -0.065042f, 0.857765f, 0.736240f, -0.886946f, 0.610748f, -0.366276f, -0.930145f},
  {0.348263f, 0.692508f, -0.161070f, -0.214807f, -0.068139f, -0.251868f, 0.292690f, -0.381145f, 0.831437f, -0.174011f, -0.120790f, -0.049822f, -0.612150f, -0.386067f, 0.442927f, -0.332458f, 0.506531f, -0.767843f, -0.091480f, 0.593692f, -0.462152f, -0.097250f, -0.255860f, -0.493805f, 0.450193f, 0.258021f, -0.323153f, 0.067005f, 0.880020f, 0.057853f, 0.316453f, 0.338772f},
  {0.600472f, 0.300110f, -0.522375f, -0.476457f, -0.341916f, 0.193842f, 0.478389f, -0.491961f, 0.058109f, 0.287143f, 0.482645f, -0.505224f, -0.036732f, -0.531248f, 0.164363f, 0.220261f, 0.609806f, -0.680332f, 0.419544f, 0.213004f, 0.240762f, -0.512113f, -0.444392f, -0.508106f, 0.678784f, 0.508908f, 0.031857f, 0.567077f, 0.298119f, -0.214359f, -0.160326f, -0.350430f},
  {0.396006f, -0.368428f, -0.379148f, -0.435626f, -0.391408f, 0.393274f, 0.179829f, -0.275664f, -0.027342f, 0.373884f, 0.564930f, -0.312704f, 0.727190f, -0.187192f, -0.559574f, 0.606746f, 0.302986f, 0.198511f, 0.387607f, -0.411211f, 0.802631f, -0.451744f, -0.419664f, 0.040121f, 0.340137f, 0.463971f, 0.044811f, 0.421358f, -0.203194f, -0.573171f, -0.778959f, -0.478689f},
  {0.737546f, 0.386182f, -0.790545f, -0.842195f, -0.521057f, 0.413119f, 0.676345f, -0.671363f, 0.634948f, 0.450055f, 0.828026f, -0.787031f, 0.208696f, -0.608426f, -0.357115f, 0.734435f, 0.824913f, -0.651060f, 0.681710f, 0.402891f, 0.626322f, -0.786768f, -0.740885f, -0.541320f, 0.868011f, 0.899365f, -0.393347f, 0.854122f, 0.632085f, -0.742489f, -0.773414f, -0.712005f},
  {-0.461511f, 0.098120f, 0.523067f, 0.424118f, 0.344482f, -0.280960f, -0.478342f, 0.340636f, 0.427433f, -0.255207f, -0.447101f, 0.485291f, -0.164781f, 0.426951f, 0.030131f, -0.212745f, -0.354686f, 0.193569f, -0.418546f, 0.033495f, -0.392649f, 0.415229f, 0.363862f, 0.372903f, -0.296794f, -0.404316f, -0.371131f, -0.495093f, 0.177458f, 0.022066f, 0.134917f, 0.476475f},
  {-0.312139f, -0.042091f, 0.384752f, 0.236354f, 0.485841f, -0.205403f, -0.436893f, 0.139805f, 0.581858f, -0.272728f, -0.251605f, 0.413043f, 0.142760f, 0.509754f, -0.339223f, 0.200997f, -0.405534f, 0.364011f, -0.257152f, -0.122446f, -0.082152f, 0.328459f, 0.211585f, 0.479152f, -0.176221f, -0.273829f, -0.620737f, -0.353089f, -0.033328f, -0.315727f, -0.230773f, 0.337347f},
  {-0.030770f, 0.025790f, -0.016505f, 0.272720f, -0.122582f, -0.207513f, 0.082749f, 0.495603f, -0.292047f, 0.198756f, -0.183304f, -0.019534f, -0.127459f, -0.141876f, 0.705384f, -0.615303f, -0.210375f, -0.126823f, -0.043343f, -0.028413f, -0.035014f, -0.017750f, 0.383046f, -0.430471f, -0.335210f, -0.478809f, 0.516451f, -0.033940f, -0.103077f, 0.796224f, 0.556217f, -0.184287f},
  {-0.653185f, -0.474931f, 0.640574f, 0.377068f, 0.707647f, 0.282789f, -0.930129f, 0.242780f, 0.710375f, -0.469795f, -0.138435f, 0.667735f, 0.484763f, 0.731040f, -0.920775f, 0.627259f, -0.690750f, 0.840209f, -0.525108f, -0.549955f, 0.084178f, 0.545599f, 0.230160f, 1.045920f, -0.324330f, -0.156096f, -1.150758f, -0.627002f, -0.448572f, -0.724440f, -0.560762f, 0.398937f},
  {-0.472639f, 0.864792f, 0.437515f, 0.746196f, 0.511214f, -0.403071f, 0.005706f, 0.294112f, 0.696240f, -0.812931f, -0.913705f, 0.571135f, -0.873859f, 0.029721f, 0.771956f, -0.781667f, 0.145258f, -0.632387f, -0.585865f, 0.436557f, -1.004475f, 0.749726f, 0.582418f, -0.421185f, -0.473971f, -0.858379f, 0.152719f, -0.686570f, 0.879670f, 0.726417f, 0.848618f, 0.977774f},
  {0.034318f, 0.035356f, -0.170528f, 0.183518f, -0.229579f, -0.154537f, 0.242450f, 0.283285f, -0.407627f, 0.183895f, 0.028837f, -0.124204f, -0.111809f, -0.367341f, 0.857716f, -0.667282f, -0.023019f, -0.327458f, -0.045934f, -0.095537f, 0.132001f, -0.147055f, 0.200871f, -0.493742f, -0.174768f, -0.266730f, 0.492494f, 0.101698f, -0.191402f, 0.704876f, 0.505395f, -0.182161f},
  {0.521411f, -0.660415f, -0.603365f, -0.150482f, -0.702911f, 0.392597f, 0.634702f, 0.276801f, -0.870269f, 0.758523f, 0.657429f, -0.604274f, 0.751557f, -0.664656f, 0.740556f, -0.390419f, -0.043794f, 0.452219f, 0.556157f, -0.632459f, 0.836783f, -0.636158f, -0.063990f, -0.690656f, -0.143577f, 0.002642f, 0.845393f, 0.696588f, -0.719665f, 0.682304f, -0.186101f, -0.717781f},
  {-0.579531f, 1.116626f, 0.664076f, 0.647060f, 0.529699f, -0.663010f, -0.327419f, 0.453696f, 0.913068f, -0.749102f, -0.819223f, 0.662000f, -1.173269f, 0.303333f, 1.574856f, -1.175008f, -0.324352f, -1.002731f, -0.634434f, 0.664759f, -1.090461f, 0.764222f, 0.705636f, 0.129435f, -0.574004f, -0.778055f, -0.310094f, -0.672435f, 1.265229f, 1.207342f, 1.347816f, 0.929474f},
  {0.560728f, -0.018941f, -0.490789f, -0.449736f, -0.467666f, 0.109109f, 0.542312f, -0.307279f, -0.161782f, 0.448101f, 0.430350f, -0.441225f, 0.144473f, -0.496455f, 0.341077f, 0.061362f, 0.417589f, -0.501221f, 0.389042f, 0.007364f, 0.387022f, -0.569708f, -0.352448f, -0.593052f, 0.436418f, 0.382992f, 0.333592f, 0.569446f, -0.034784f, -0.002632f, -0.140379f, -0.491505f},
  {0.691131f, 0.011283f, -0.666384f, -0.771667f, -0.440861f, 0.677420f, 0.424273f, -0.749508f, 0.481008f, 0.381894f, 0.858953f, -0.607158f, 0.688215f, -0.332899f, -0.892241f, 1.122729f, 0.606914f, -0.141692f, 0.710787f, -0.123433f, 0.979652f, -0.741235f, -0.747095f, -0.003982f, 0.902702f, 0.887571f, -0.626146f, 0.766528f, 0.237523f, -1.047584f, -1.060383f, -0.784457f},
  {-0.203388f, 0.228548f, 0.309059f, 0.273777f, 0.307585f, -0.155454f, -0.218942f, 0.160683f, 0.508646f, -0.356113f, -0.379592f, 0.342206f, -0.188572f, 0.209656f, 0.037547f, -0.134654f, -0.156949f, -0.051934f, -0.335012f, -0.026511f, -0.362006f, 0.322950f, 0.152338f, 0.212388f, 0.038659f, -0.228277f, -0.418683f, -0.275729f, 0.216496f, 0.052654f, 0.143060f, 0.395088f},
  {0.713156f, -0.716498f, -0.805665f, -0.265820f, -0.814705f, 0.473952f, 0.706002f, 0.389171f, -0.962843f, 0.883540f, 0.850996f, -0.754900f, 0.744870f, -0.740323f, 0.799500f, -0.402934f, -0.142880f, 0.428419f, 0.571692f, -0.563556f, 0.948925f, -0.864298f, 0.017535f, -0.712122f, -0.133791f, -0.023281f, 0.984681f, 0.865989f, -0.877766f, 0.798124f, -0.103143f, -0.908595f},
  {-0.638600f, 1.345369f, 0.636963f, 0.746236f, 0.539950f, -0.851596f, -0.324490f, 0.531933f, 0.962927f, -0.758060f, -0.911212f, 0.713089f, -1.416529f, 0.305415f, 1.544032f, -1.326368f, -0.234721f, -1.163021f, -0.710467f, 1.077148f, -1.220631f, 0.722825f, 0.659810f, 0.043487f, -0.561988f, -0.827088f, -0.402312f, -0.782591f, 1.360544f, 1.288191f, 1.352790f, 0.907194f},
  {0.650174f, -0.769996f, -0.753417f, -0.183200f, -0.785072f, 0.468525f, 0.709544f, 0.396774f, -0.995536f, 0.767248f, 0.668520f, -0.690720f, 0.699991f, -0.761327f, 1.089561f, -0.724660f, -0.063208f, 0.408260f, 0.574930f, -0.758689f, 0.786507f, -0.739239f, -0.004584f, -0.883296f, -0.343258f, -0.072509f, 0.957181f, 0.744031f, -0.858849f, 0.956092f, 0.044439f, -0.882084f},
  {0.599905f, -0.536434f, -0.702894f, -0.248218f, -0.647644f, 0.353655f, 0.740893f, 0.253992f, -0.808637f, 0.650331f, 0.617479f, -0.726563f, 0.450583f, -0.697093f, 0.851207f, -0.421591f, 0.098415f, 0.087915f, 0.530351f, -0.367389f, 0.655534f, -0.675703f, -0.051816f, -0.832970f, -0.040989f, 0.041808f, 0.940847f, 0.712655f, -0.683887f, 0.841732f, 0.042516f, -0.748695f},
  {-0.771029f, 0.556953f, 0.787878f, 0.699780f, 0.762514f, -0.349486f, -0.658502f, 0.274343f, 0.872020f, -0.721926f, -0.726775f, 0.795851f, -0.453148f, 0.651050f, 0.154078f, -0.395698f, -0.376732f, -0.062144f, -0.759797f, 0.189698f, -0.755113f, 0.739370f, 0.493741f, 0.564472f, -0.444658f, -0.594840f, -0.949572f, -0.755937f, 0.489646f, 0.133161f, 0.385568f, 0.811370f},
  {-0.667733f, 0.813551f, 0.828980f, 0.691219f, 0.768911f, -0.510056f, -0.598722f, 0.603458f, 0.832753f, -0.839437f, -0.836350f, 0.783889f, -0.869931f, 0.534912f, 0.761878f, -0.781041f, -0.460085f, -0.363980f, -0.769177f, 0.413528f, -0.948176f, 0.736826f, 0.602324f, 0.520838f, -0.642639f, -0.714307f, -0.803458f, -0.826820f, 0.806557f, 0.633996f, 0.836168f, 0.934808f},
  {0.625783f, -0.545430f, -0.802647f, -0.296146f, -0.882072f, 0.223046f, 0.657548f, 0.061123f, -0.750518f, 0.829558f, 0.803586f, -0.666961f, 0.769005f, -0.701963f, 0.699432f, -0.282450f, 0.087313f, 0.271158f, 0.622687f, -0.584942f, 0.916593f, -0.719405f, -0.168149f, -0.823647f, -0.043963f, 0.140903f, 0.944200f, 0.846026f, -0.625842f, 0.400257f, 0.005377f, -0.867282f},
  {0.392264f, -0.567289f, -0.596251f, 0.106995f, -0.654556f, 0.255593f, 0.532279f, 0.443094f, -0.803585f, 0.676255f, 0.499447f, -0.564098f, 0.601502f, -0.642561f, 0.900977f, -0.575927f, -0.220676f, 0.411716f, 0.489711f, -0.500746f, 0.679315f, -0.572987f, 0.169822f, -0.763573f, -0.322985f, -0.303937f, 0.921905f, 0.548043f, -0.681652f, 0.810624f, 0.221223f, -0.863911f},
  {-0.317517f, -0.981421f, 0.230115f, -0.034511f, 0.188665f, 0.572666f, -0.867969f, 0.205069f, -0.186100f, 0.167013f, 0.569069f, 0.251683f, 1.063742f, 0.660345f, -1.195246f, 1.132293f, -0.833068f, 1.108654f, 0.081333f, -1.017557f, 0.933657f, -0.025788f, -0.224794f, 1.116742f, -0.135660f, 0.333516f, -0.989074f, -0.034630f, -1.000702f, -1.127564f, -1.147330f, -0.298492f},
  {-0.589308f, 0.069795f, 0.542997f, 0.398267f, 0.586409f, -0.256040f, -0.592861f, 0.286476f, 0.424300f, -0.448265f, -0.431223f, 0.578017f, 0.008209f, 0.512215f, -0.291781f, 0.023928f, -0.494231f, 0.284056f, -0.496420f, -0.264372f, -0.252455f, 0.532543f, 0.329586f, 0.591327f, -0.305299f, -0.289121f, -0.794337f, -0.526854f, 0.037893f, -0.302261f, -0.059887f, 0.443475f},
  {0.179040f, -0.660700f, -0.426849f, 0.226669f, -0.668488f, 0.259972f, 0.366135f, 0.489769f, -0.863896f, 0.650136f, 0.510077f, -0.467703f, 0.583209f, -0.346730f, 0.734378f, -0.524912f, -0.395696f, 0.330239f, 0.347041f, -0.612284f, 0.724578f, -0.368513f, 0.210298f, -0.584860f, -0.425532f, -0.370565f, 0.873016f, 0.406230f, -0.753753f, 0.713613f, 0.096178f, -0.708546f},
  {0.596745f, 0.187031f, -0.571479f, -0.664559f, -0.364606f, 0.257329f, 0.487118f, -0.532237f, 0.417398f, 0.256298f, 0.552944f, -0.458775f, 0.221421f, -0.400923f, -0.493756f, 0.597237f, 0.649449f, -0.336340f, 0.506015f, 0.201574f, 0.495236f, -0.606300f, -0.514335f, -0.251789f, 0.656135f, 0.707137f, -0.312825f, 0.622895f, 0.395907f, -0.594134f, -0.605704f, -0.460750f},
  {0.719676f, 0.584333f, -0.659702f, -0.665938f, -0.499410f, 0.428482f, 0.569191f, -0.640214f, 0.635906f, 0.371379f, 0.668204f, -0.639554f, 0.157213f, -0.536811f, -0.528267f, 0.692112f, 0.714850f, -0.739847f, 0.605195f, 0.217782f, 0.640414f, -0.651110f, -0.685217f, -0.489615f, 0.789024f, 0.737195f, -0.532010f, 0.648056f, 0.753401f, -0.676994f, -0.683683f, -0.611336f},
  {0.555254f, 0.362258f, -0.480968f, -0.610980f, -0.416116f, 0.225524f, 0.459708f, -0.518753f, 0.545862f, 0.293084f, 0.558034f, -0.437706f, 0.006913f, -0.419121f, -0.448595f, 0.562662f, 0.620221f, -0.530343f, 0.397245f, -0.094478f, 0.363318f, -0.571342f, -0.510745f, -0.408732f, 0.714892f, 0.664908f, -0.400617f, 0.599903f, 0.644074f, -0.611141f, -0.517068f, -0.315783f},
  {0.530065f, -0.289405f, -0.596960f, -0.345018f, -0.819926f, 0.367707f, 0.679308f, -0.185001f, -0.509034f, 0.683012f, 0.538769f, -0.673528f, 0.353358f, -0.648900f, 0.480456f, 0.027648f, 0.413663f, -0.332732f, 0.563885f, -0.099027f, 0.697045f, -0.593939f, -0.304047f, -0.760730f, 0.234184f, 0.270264f, 0.605162f, 0.685338f, -0.219971f, 0.169559f, -0.042104f, -0.803863f},
  {0.396105f, -0.857588f, -0.640814f, 0.314074f, -0.950004f, 0.433464f, 0.607433f, 0.773554f, -1.036420f, 0.859425f, 0.647092f, -0.627169f, 0.788093f, -0.676709f, 1.034831f, -0.864922f, -0.562081f, 0.593966f, 0.542022f, -0.742148f, 0.911012f, -0.604728f, 0.534609f, -0.812992f, -0.674817f, -0.628012f, 1.061947f, 0.600360f, -0.961499f, 1.036234f, 0.479839f, -0.933822f},
  {0.169837f, -0.473045f, -0.452310f, 0.213396f, -0.622794f, 0.223322f, 0.453270f, 0.304243f, -0.650104f, 0.508047f, 0.380755f, -0.420778f, 0.487769f, -0.398393f, 0.603453f, -0.486531f, -0.305844f, 0.344844f, 0.379715f, -0.499925f, 0.552200f, -0.341756f, 0.280285f, -0.525068f, -0.423921f, -0.350148f, 0.647646f, 0.316730f, -0.498487f, 0.609706f, 0.190418f, -0.628404f},
  {0.473101f, 0.286096f, -0.432164f, -0.485706f, -0.244153f, 0.082654f, 0.399956f, -0.523426f, 0.705876f, 0.083978f, 0.380740f, -0.270036f, 0.003443f, -0.233603f, -0.363674f, 0.480885f, 0.523119f, -0.292297f, 0.220494f, 0.139714f, 0.211875f, -0.420530f, -0.454882f, -0.123850f, 0.623568f, 0.628292f, -0.302926f, 0.412415f, 0.481066f, -0.561711f, -0.411590f, -0.325161f},
  {0.204421f, -0.756971f, -0.440032f, 0.298271f, -0.694206f, 0.108090f, 0.491530f, 0.707899f, -0.860959f, 0.687783f, 0.455798f, -0.483286f, 0.694128f, -0.519709f, 0.954786f, -0.744987f, -0.469743f, 0.597599f, 0.343218f, -0.593465f, 0.765492f, -0.493568f, 0.442787f, -0.677896f, -0.686273f, -0.539077f, 1.007829f, 0.517713f, -0.792143f, 0.998018f, 0.487879f, -0.818073f},
  {0.679267f, 0.097309f, -0.619651f, -0.541957f, -0.504156f, 0.268407f, 0.662204f, -0.373181f, -0.099375f, 0.394491f, 0.654764f, -0.638494f, 0.027640f, -0.655325f, 0.094484f, 0.221767f, 0.518330f, -0.495026f, 0.557682f, -0.005441f, 0.504876f, -0.661835f, -0.461229f, -0.553846f, 0.508455f, 0.494570f, 0.171392f, 0.638150f, 0.080011f, -0.071081f, -0.413853f, -0.498198f},
  {0.692197f, 0.507179f, -0.619434f, -0.687177f, -0.507104f, 0.435440f, 0.554653f, -0.656092f, 0.690826f, 0.370493f, 0.612843f, -0.553842f, 0.269357f, -0.543626f, -0.484064f, 0.674942f, 0.674829f, -0.724370f, 0.489619f, 0.256762f, 0.572421f, -0.703599f, -0.651324f, -0.498320f, 0.716283f, 0.685613f, -0.470631f, 0.659585f, 0.853698f, -0.683039f, -0.648590f, -0.471976f},
  {0.682347f, 0.392302f, -0.616203f, -0.605851f, -0.481633f, 0.248085f, 0.505694f, -0.567018f, 0.421334f, 0.408502f, 0.609738f, -0.473307f, 0.036918f, -0.530179f, -0.293802f, 0.565311f, 0.605554f, -0.521689f, 0.533550f, 0.008850f, 0.400269f, -0.577739f, -0.596006f, -0.457933f, 0.685094f, 0.670250f, -0.181146f, 0.658027f, 0.571909f, -0.559694f, -0.516258f, -0.331688f},
  {0.381799f, -0.883476f, -0.743871f, 0.268334f, -0.955392f, 0.347361f, 0.655339f, 0.625331f, -1.044110f, 0.879913f, 0.637507f, -0.682698f, 0.922937f, -0.763313f, 1.124238f, -0.773667f, -0.573289f, 0.709145f, 0.505586f, -0.822471f, 0.938303f, -0.635746f, 0.395991f, -0.901760f, -0.594769f, -0.475265f, 1.070835f, 0.745761f, -0.923211f, 0.988933f, 0.209121f, -0.971234f},
  {0.201314f, -0.528168f, -0.442491f, 0.370412f, -0.541707f, 0.121932f, 0.485762f, 0.403706f, -0.704627f, 0.616059f, 0.333515f, -0.465059f, 0.497482f, -0.389937f, 0.706078f, -0.516918f, -0.392269f, 0.363403f, 0.366710f, -0.519633f, 0.635532f, -0.376332f, 0.345620f, -0.590577f, -0.494082f, -0.380403f, 0.777455f, 0.432576f, -0.638556f, 0.689502f, 0.248114f, -0.684906f},
  {0.148107f, -0.464894f, -0.256905f, 0.146041f, -0.355311f, 0.065765f, 0.289778f, 0.338444f, -0.548578f, 0.486222f, 0.251668f, -0.277638f, 0.416956f, -0.267927f, 0.438082f, -0.297607f, -0.146725f, 0.231194f, 0.233477f, -0.374418f, 0.536635f, -0.283885f, 0.175431f, -0.411319f, -0.171924f, -0.187986f, 0.624023f, 0.288728f, -0.497452f, 0.514215f, 0.155068f, -0.473149f},
  {-0.661478f, 0.770075f, 0.783832f, 0.659704f, 0.660468f, -0.645914f, -0.482487f, 0.371207f, 0.899686f, -0.818277f, -0.851951f, 0.835967f, -0.762742f, 0.429358f, 0.651773f, -0.605909f, -0.205488f, -0.586917f, -0.782177f, 0.514677f, -0.892274f, 0.877503f, 0.547329f, 0.319080f, -0.450234f, -0.758485f, -0.602906f, -0.886206f, 0.909155f, 0.455669f, 0.826837f, 0.908232f},
  {-0.103480f, 1.170946f, 0.328946f, 0.033448f, 0.345929f, -0.564517f, 0.037443f, -0.121944f, 0.970009f, -0.554170f, -0.515433f, 0.338085f, -1.016252f, -0.016196f, 0.982638f, -0.684145f, 0.356065f, -1.305403f, -0.363321f, 1.040877f, -0.814309f, 0.233908f, 0.136800f, -0.106936f, 0.108420f, -0.047296f, -0.501054f, -0.235331f, 1.288853f, 0.561323f, 0.858303f, 0.619298f},
  {0.600883f, 0.397794f, -0.589368f, -0.574719f, -0.329290f, 0.317935f, 0.538358f, -0.608801f, 0.686736f, 0.342514f, 0.555699f, -0.459182f, 0.081050f, -0.526841f, -0.588724f, 0.601978f, 0.658559f, -0.678741f, 0.455943f, 0.140927f, 0.410855f, -0.623097f, -0.565303f, -0.282255f, 0.744805f, 0.642147f, -0.469314f, 0.634796f, 0.724865f, -0.695207f, -0.534717f, -0.324471f},
  {1.076321f, 0.787879f, -1.015676f, -1.125733f, -0.693053f, 0.690444f, 0.966716f, -1.068101f, 0.954160f, 0.624753f, 1.005659f, -0.970537f, 0.158368f, -0.959423f, -0.910121f, 1.095669f, 1.052195f, -1.106708f, 0.927513f, 0.624157f, 0.925092f, -1.071301f, -0.968295f, -0.912779f, 1.174019f, 1.163061f, -0.653070f, 1.067637f, 1.145044f, -1.093246f, -1.077119f, -0.976092f},
  {1.047490f, 0.839232f, -1.036502f, -1.005756f, -0.666496f, 0.524204f, 0.927999f, -0.912332f, 0.883527f, 0.545772f, 0.979542f, -0.986678f, 0.221996f, -0.825442f, -0.819681f, 1.005453f, 1.035811f, -1.023841f, 0.893519f, 0.491379f, 0.849410f, -1.076112f, -0.882963f, -0.783494f, 1.106175f, 1.092069f, -0.634640f, 1.005661f, 1.082737f, -0.954583f, -0.958542f, -0.791592f},
  {0.662643f, -0.321844f, -0.759725f, -0.503014f, -0.805087f, 0.410325f, 0.740207f, -0.293013f, -0.285554f, 0.673006f, 0.764231f, -0.788645f, 0.626841f, -0.829630f, 0.043231f, 0.248959f, 0.480797f, -0.249836f, 0.697084f, -0.124313f, 0.900601f, -0.840691f, -0.377777f, -0.694414f, 0.380766f, 0.446346f, 0.391569f, 0.851522f, -0.193686f, -0.031317f, -0.595278f, -0.760516f},
  {0.329395f, -0.635568f, -0.502408f, 0.048987f, -0.613602f, 0.319809f, 0.554810f, 0.447092f, -0.733606f, 0.628502f, 0.554815f, -0.594126f, 0.554419f, -0.517773f, 0.575160f, -0.334956f, -0.227290f, 0.482880f, 0.519941f, -0.481249f, 0.659269f, -0.580639f, 0.064683f, -0.604737f, -0.308612f, -0.197164f, 0.730053f, 0.533268f, -0.718981f, 0.649196f, 0.059413f, -0.709470f},
  {0.231590f, -0.659800f, -0.562298f, 0.182933f, -0.605691f, 0.345459f, 0.396575f, 0.451385f, -0.845929f, 0.633212f, 0.444429f, -0.479864f, 0.697257f, -0.556773f, 0.797543f, -0.392491f, -0.283711f, 0.498273f, 0.534348f, -0.552101f, 0.754909f, -0.544352f, 0.098487f, -0.599512f, -0.357013f, -0.275154f, 0.812341f, 0.441735f, -0.833384f, 0.841928f, -0.009734f, -0.714079f},
  {0.054619f, -0.550173f, -0.378075f, 0.317673f, -0.747727f, 0.172500f, 0.429539f, 0.512894f, -0.791880f, 0.673950f, 0.346890f, -0.355949f, 0.615812f, -0.404510f, 0.723878f, -0.549989f, -0.500787f, 0.549606f, 0.300207f, -0.529922f, 0.678871f, -0.302494f, 0.374310f, -0.558710f, -0.489281f, -0.534231f, 0.806619f, 0.361289f, -0.728206f, 0.694012f, 0.313296f, -0.712811f},
  {0.413363f, -0.590483f, -0.566452f, -0.017720f, -0.736060f, 0.278648f, 0.557511f, 0.454617f, -0.804872f, 0.661907f, 0.610926f, -0.555945f, 0.659412f, -0.523124f, 0.933692f, -0.434585f, -0.218241f, 0.361632f, 0.514381f, -0.399479f, 0.721033f, -0.549266f, 0.166367f, -0.676551f, -0.265738f, -0.213075f, 0.850631f, 0.593316f, -0.741765f, 0.721110f, 0.012630f, -0.808278f},
  {0.430283f, -0.816606f, -0.753259f, 0.262980f, -0.867506f, 0.413966f, 0.683719f, 0.630339f, -0.977640f, 0.942306f, 0.707412f, -0.669450f, 0.906112f, -0.739578f, 0.946909f, -0.619241f, -0.609372f, 0.727998f, 0.557449f, -0.793188f, 1.023078f, -0.636302f, 0.374354f, -0.850889f, -0.582504f, -0.429343f, 1.093531f, 0.725946f, -0.915044f, 0.912737f, 0.181280f, -1.085202f},
  {0.393971f, -0.575678f, -0.457855f, 0.032710f, -0.538515f, 0.207621f, 0.418614f, 0.243839f, -0.668224f, 0.554019f, 0.481289f, -0.520959f, 0.485733f, -0.467260f, 0.707000f, -0.405161f, -0.186218f, 0.160023f, 0.394878f, -0.541930f, 0.599463f, -0.503761f, 0.115739f, -0.606239f, -0.168817f, -0.124606f, 0.718737f, 0.476542f, -0.686599f, 0.680533f, -0.037219f, -0.626579f},
  {0.278903f, -0.540903f, -0.499388f, 0.075359f, -0.504617f, 0.188431f, 0.429660f, 0.342239f, -0.771138f, 0.570451f, 0.421532f, -0.431650f, 0.522396f, -0.476855f, 0.941637f, -0.488825f, -0.183961f, 0.325639f, 0.363737f, -0.529811f, 0.651672f, -0.450818f, 0.160371f, -0.609689f, -0.353583f, -0.269924f, 0.895692f, 0.499998f, -0.713850f, 0.694997f, 0.297235f, -0.748173f},
  {-0.498876f, 0.053529f, 0.655075f, 0.361644f, 0.506590f, -0.267936f, -0.562815f, 0.278520f, 0.587584f, -0.409125f, -0.411157f, 0.543922f, -0.046504f, 0.532246f, -0.315536f, 0.055571f, -0.463743f, 0.321944f, -0.378582f, -0.001135f, -0.314461f, 0.518076f, 0.304986f, 0.640097f, -0.390373f, -0.382508f, -0.787464f, -0.490042f, 0.160935f, -0.231564f, 0.083842f, 0.571301f},
  {0.175513f, 0.591304f, -0.097105f, -0.203166f, 0.025230f, -0.034667f, 0.159599f, -0.258130f, 0.628951f, -0.173441f, -0.079797f, 0.049552f, -0.419639f, -0.173416f, 0.262334f, -0.193378f, 0.363331f, -0.525226f, 0.004178f, 0.533322f, -0.369010f, 0.018386f, -0.117716f, -0.202935f, 0.308130f, 0.125660f, -0.366543f, 0.020471f, 0.773315f, 0.080489f, 0.237891f, 0.300437f},
  {-0.603791f, 0.543463f, 0.660580f, 0.580149f, 0.521386f, -0.540996f, -0.469951f, 0.391684f, 0.626257f, -0.644895f, -0.710978f, 0.593213f, -0.620567f, 0.323439f, 0.390683f, -0.536873f, -0.300176f, -0.197439f, -0.597080f, 0.315926f, -0.755431f, 0.631005f, 0.531798f, 0.214098f, -0.591442f, -0.681039f, -0.496358f, -0.667123f, 0.590287f, 0.395681f, 0.594686f, 0.754713f},
  {-0.475504f, 1.048867f, 0.591818f, 0.576663f, 0.519256f, -0.591060f, -0.269950f, 0.370025f, 0.741966f, -0.687513f, -0.841476f, 0.614989f, -1.150442f, 0.168388f, 1.328527f, -1.069346f, -0.117582f, -0.981432f, -0.648535f, 0.703666f, -1.054562f, 0.600826f, 0.483718f, -0.028935f, -0.347101f, -0.575474f, -0.224255f, -0.640162f, 1.109326f, 1.038541f, 1.136129f, 0.870359f},
  {1.286728f, 1.063801f, -1.183418f, -1.191933f, -0.994448f, 0.829420f, 1.180204f, -1.124156f, 0.963027f, 0.932049f, 1.185917f, -1.252618f, 0.336391f, -1.089635f, -0.556761f, 1.162595f, 1.242931f, -1.425856f, 1.123432f, 0.854490f, 1.174136f, -1.222638f, -1.205576f, -1.166602f, 1.364500f, 1.284023f, -0.570735f, 1.285592f, 1.396505f, -1.025687f, -1.179261f, -1.192496f},
  {1.026107f, 0.695118f, -0.920720f, -0.925990f, -0.576948f, 0.528766f, 0.717718f, -0.819250f, 0.756407f, 0.509473f, 1.020617f, -0.845483f, 0.242446f, -0.762469f, -0.684262f, 0.932003f, 0.972558f, -0.912104f, 0.813746f, 0.403160f, 0.758050f, -0.956177f, -0.812377f, -0.780487f, 1.065530f, 1.047061f, -0.605509f, 0.938569f, 0.856997f, -0.932413f, -0.878753f, -0.760578f},
  {0.530921f, -0.202298f, -0.573999f, -0.359392f, -0.522673f, 0.194223f, 0.549774f, -0.235072f, -0.363386f, 0.547895f, 0.581604f, -0.544638f, 0.457493f, -0.490032f, 0.225144f, 0.151290f, 0.328211f, -0.178958f, 0.495307f, -0.106023f, 0.646236f, -0.575214f, -0.254506f, -0.547499f, 0.333039f, 0.384048f, 0.419845f, 0.535997f, -0.256392f, -0.002698f, -0.213161f, -0.617408f},
  {0.296575f, -0.117608f, -0.364494f, -0.235601f, -0.399298f, 0.011646f, 0.330905f, -0.152283f, -0.162102f, 0.303671f, 0.297648f, -0.235390f, 0.147437f, -0.340792f, 0.271872f, 0.070742f, 0.197761f, -0.221935f, 0.304977f, -0.281293f, 0.292035f, -0.318808f, -0.187899f, -0.289037f, 0.266645f, 0.234068f, 0.234726f, 0.297281f, -0.073031f, 0.042462f, -0.099618f, -0.277628f},
  {0.370456f, -0.699272f, -0.627021f, 0.190822f, -0.654208f, 0.267172f, 0.560831f, 0.575914f, -0.798044f, 0.736205f, 0.614729f, -0.619093f, 0.651836f, -0.591776f, 0.631580f, -0.419679f, -0.414481f, 0.597100f, 0.504447f, -0.573051f, 0.772603f, -0.586224f, 0.193755f, -0.747422f, -0.433736f, -0.328004f, 0.815794f, 0.604486f, -0.760930f, 0.744616f, 0.227167f, -0.735837f},
  {0.733188f, -0.686767f, -0.712000f, -0.368259f, -0.767292f, 0.535331f, 0.688511f, 0.179744f, -0.842893f, 0.779028f, 0.734009f, -0.732801f, 0.747622f, -0.693000f, 0.894218f, -0.377204f, 0.229658f, 0.309390f, 0.591265f, -0.612134f, 0.793843f, -0.733700f, -0.328394f, -0.748325f, 0.113827f, 0.162653f, 0.906739f, 0.723724f, -0.814532f, 0.817446f, -0.189443f, -0.851448f},
  {0.528215f, -0.748337f, -0.709579f, -0.096115f, -0.737792f, 0.451479f, 0.619805f, 0.384575f, -0.919322f, 0.715448f, 0.603627f, -0.658923f, 0.733565f, -0.611666f, 0.955839f, -0.619152f, -0.101766f, 0.580059f, 0.589976f, -0.773876f, 0.814644f, -0.667501f, 0.010023f, -0.755178f, -0.283640f, -0.079045f, 1.015710f, 0.721476f, -0.843621f, 0.942094f, -0.047511f, -0.850891f},
  {-0.074530f, -0.116262f, 0.053367f, -0.138210f, 0.015199f, 0.063497f, -0.175927f, -0.103008f, 0.242560f, -0.023319f, 0.239770f, 0.039166f, 0.256359f, 0.094521f, -0.463909f, 0.358099f, -0.124653f, 0.332281f, 0.002689f, -0.482513f, 0.141203f, -0.053843f, -0.163413f, 0.474113f, -0.067566f, 0.162584f, -0.598963f, -0.022159f, -0.033009f, -0.548151f, -0.382711f, 0.088978f},
  {-0.662375f, 1.384989f, 0.758151f, 0.793726f, 0.728509f, -0.848812f, -0.298424f, 0.511479f, 0.927262f, -0.956598f, -1.074596f, 0.831929f, -1.322200f, 0.367365f, 1.467040f, -1.371157f, -0.064984f, -1.247795f, -0.844944f, 1.054714f, -1.296456f, 0.835929f, 0.748200f, -0.032897f, -0.595118f, -0.959782f, -0.421588f, -0.875919f, 1.319915f, 1.282009f, 1.496148f, 1.120817f},
  {-0.538519f, 0.916052f, 0.583865f, 0.565628f, 0.401034f, -0.525494f, -0.257300f, 0.409780f, 0.614446f, -0.553424f, -0.720016f, 0.519089f, -0.959137f, 0.200026f, 1.117374f, -0.916755f, -0.209141f, -0.941706f, -0.528864f, 0.407493f, -0.927490f, 0.645097f, 0.528606f, 0.045325f, -0.412240f, -0.661169f, -0.345797f, -0.606067f, 0.898937f, 0.940861f, 1.071587f, 0.810943f},
  {0.735211f, 0.553049f, -0.577778f, -0.662783f, -0.463704f, 0.188511f, 0.542892f, -0.594489f, 0.641659f, 0.294551f, 0.592137f, -0.581701f, 0.137946f, -0.579992f, -0.491000f, 0.610765f, 0.651928f, -0.685206f, 0.537665f, 0.239776f, 0.521535f, -0.659899f, -0.664700f, -0.536236f, 0.774163f, 0.695209f, -0.462845f, 0.662787f, 0.717621f, -0.609204f, -0.692893f, -0.487671f},
  {1.047464f, 0.724538f, -0.892432f, -0.931443f, -0.606507f, 0.486188f, 0.892932f, -0.919132f, 0.843492f, 0.456806f, 0.850954f, -0.882487f, 0.124703f, -0.834940f, -0.741119f, 0.818047f, 0.998555f, -1.090009f, 0.819854f, 0.599239f, 0.671847f, -0.937652f, -0.899112f, -0.883776f, 1.080880f, 0.979348f, -0.600328f, 1.000042f, 1.096024f, -0.807817f, -0.795156f, -0.740235f},
  {0.694112f, -0.162446f, -0.612093f, -0.511485f, -0.632963f, 0.352155f, 0.631323f, -0.288839f, -0.370014f, 0.535512f, 0.685060f, -0.726337f, 0.488746f, -0.679861f, 0.200194f, 0.263135f, 0.559976f, -0.384920f, 0.553962f, -0.081581f, 0.675059f, -0.722490f, -0.408502f, -0.643044f, 0.533454f, 0.472440f, 0.478780f, 0.754182f, -0.170200f, 0.036186f, -0.319086f, -0.686993f},
  {0.643120f, 0.546563f, -0.609046f, -0.633696f, -0.458692f, 0.308234f, 0.582491f, -0.527239f, 0.465920f, 0.417857f, 0.647818f, -0.609162f, -0.046762f, -0.505811f, -0.208287f, 0.569488f, 0.695006f, -0.739424f, 0.597908f, 0.023652f, 0.566987f, -0.648198f, -0.599667f, -0.651837f, 0.803680f, 0.683721f, -0.227081f, 0.653649f, 0.636649f, -0.528974f, -0.589362f, -0.640643f},
  {0.880635f, 0.640987f, -0.875964f, -0.870814f, -0.625020f, 0.446913f, 0.771839f, -0.840745f, 0.779180f, 0.490375f, 0.874899f, -0.737045f, 0.057114f, -0.748173f, -0.566869f, 0.799307f, 0.952057f, -0.976019f, 0.713232f, 0.322554f, 0.780551f, -0.867012f, -0.762554f, -0.769406f, 0.993854f, 0.941273f, -0.366512f, 0.912144f, 0.937657f, -0.831116f, -0.770608f, -0.728918f},
  {0.833058f, -0.385436f, -0.887308f, -0.673423f, -0.821199f, 0.443520f, 0.866396f, -0.406683f, -0.428029f, 0.623616f, 0.829413f, -0.865962f, 0.678364f, -0.887658f, 0.322672f, 0.245481f, 0.460415f, -0.283735f, 0.749845f, 0.032795f, 0.767277f, -0.911116f, -0.457939f, -0.823722f, 0.524504f, 0.574194f, 0.409478f, 0.918288f, -0.261833f, 0.112886f, -0.470880f, -0.837315f},
  {0.532872f, -0.657728f, -0.611660f, -0.210414f, -0.720457f, 0.443150f, 0.581081f, 0.215572f, -0.801957f, 0.612616f, 0.670820f, -0.629222f, 0.615771f, -0.645310f, 0.668240f, -0.398563f, 0.002213f, 0.253533f, 0.614412f, -0.525434f, 0.714261f, -0.648433f, -0.072652f, -0.661209f, 0.004622f, 0.041234f, 0.833654f, 0.644950f, -0.723522f, 0.767739f, -0.215724f, -0.685039f},
  {0.639892f, -0.801838f, -0.750417f, -0.208957f, -0.808432f, 0.534780f, 0.813749f, 0.371872f, -1.061241f, 0.904147f, 0.827502f, -0.854586f, 0.860911f, -0.820022f, 1.076073f, -0.773587f, 0.104117f, 0.534500f, 0.684079f, -0.791675f, 0.966757f, -0.758052f, -0.045177f, -0.940550f, -0.200023f, 0.032778f, 1.115456f, 0.822050f, -0.951402f, 1.075099f, -0.053801f, -0.896090f},
